svm_type c_svc
kernel_type rbf
gamma 0.5000
nr_class 2
total_sv 659
rho -0.9035
label 0 1
nr_sv 337 322
SV
1.700000e-01 1:7.87945 2:10.96900 3:8.71601 4:9.49377 5:9.06188
1.700000e-01 1:8.01093 2:9.52590 3:8.19016 4:8.30693 5:9.30165
1.700000e-01 1:8.39685 2:10.97684 3:8.68870 4:9.67705 5:9.69812
1.700000e-01 1:8.24665 2:11.10648 3:9.16084 4:9.59714 5:9.25321
1.700000e-01 1:8.06026 2:10.60428 3:9.07670 4:9.35415 5:9.66485
1.700000e-01 1:8.31892 2:10.78808 3:8.73983 4:9.89470 5:10.05621
1.700000e-01 1:8.26783 2:10.31040 3:8.87789 4:8.87897 5:9.05192
1.700000e-01 1:8.23339 2:10.35042 3:8.99635 4:9.13222 5:8.65354
1.700000e-01 1:8.35035 2:10.79567 3:8.94363 4:8.94231 5:8.89594
1.700000e-01 1:8.25515 2:10.24916 3:9.16157 4:9.09465 5:8.87001
1.700000e-01 1:8.08756 2:9.91815 3:8.50250 4:9.37191 5:9.41717
1.700000e-01 1:8.24440 2:10.25379 3:8.80739 4:8.44817 5:8.92485
1.700000e-01 1:8.49149 2:11.04193 3:9.54142 4:9.25796 5:9.13626
1.700000e-01 1:8.28217 2:11.19898 3:10.69758 4:10.40344 5:9.38073
1.700000e-01 1:8.25212 2:10.73740 3:9.18043 4:9.16855 5:9.62160
1.700000e-01 1:8.22149 2:10.41453 3:9.07463 4:9.22033 5:9.40046
1.700000e-01 1:8.15182 2:10.83486 3:9.24122 4:9.14491 5:9.41585
1.700000e-01 1:8.24567 2:10.33514 3:8.69665 4:9.08639 5:9.26558
1.700000e-01 1:8.21866 2:10.79411 3:9.05431 4:9.07386 5:9.16046
1.700000e-01 1:8.15169 2:10.31825 3:8.97169 4:8.74223 5:9.10451
1.700000e-01 1:8.28058 2:10.53868 3:8.62192 4:8.54043 5:9.15384
4.957763e-02 1:7.14113 2:11.06463 3:7.50570 4:7.18147 5:7.11772
4.831539e-02 1:7.67458 2:11.11132 3:6.52979 4:7.19011 5:7.50784
1.700000e-01 1:7.95091 2:10.47292 3:9.14578 4:8.43957 5:9.01225
1.700000e-01 1:8.20620 2:10.65844 3:9.18590 4:9.34218 5:8.47613
1.700000e-01 1:8.23293 2:9.87296 3:9.70379 4:9.54247 5:8.86617
1.700000e-01 1:8.25830 2:11.15731 3:9.07277 4:9.47547 5:9.79145
1.700000e-01 1:8.16278 2:10.29483 3:9.29515 4:9.60869 5:9.39672
1.700000e-01 1:8.25119 2:9.95700 3:8.78401 4:9.02785 5:8.76910
1.700000e-01 1:8.10427 2:10.15373 3:8.03407 4:8.66368 5:9.14488
1.700000e-01 1:7.95835 2:10.94446 3:8.42202 4:9.01004 5:9.09571
1.700000e-01 1:7.80289 2:10.61655 3:8.99530 4:9.02355 5:9.38145
1.700000e-01 1:8.06607 2:9.77303 3:8.63427 4:8.76439 5:9.26325
1.700000e-01 1:7.93939 2:10.20286 3:8.21620 4:8.93111 5:9.21787
1.700000e-01 1:8.10169 2:9.49739 3:7.84326 4:8.82629 5:9.17964
5.277554e-02 1:8.27617 2:8.78460 3:7.10477 4:8.09484 5:7.80600
1.700000e-01 1:8.21991 2:10.57090 3:8.52351 4:9.08063 5:9.47223
1.700000e-01 1:8.15487 2:9.97571 3:8.53460 4:9.08355 5:9.30054
1.700000e-01 1:8.08038 2:10.24918 3:8.11447 4:8.91897 5:9.10877
1.700000e-01 1:8.14966 2:10.11418 3:8.56802 4:9.01477 5:8.88009
1.700000e-01 1:8.37370 2:10.27716 3:8.31595 4:8.39013 5:8.87705
1.700000e-01 1:8.34985 2:10.24588 3:8.36891 4:8.95724 5:9.18660
1.700000e-01 1:8.27019 2:10.16842 3:8.36725 4:8.64976 5:9.31328
1.700000e-01 1:8.21111 2:9.76480 3:8.20539 4:8.75287 5:8.84889
1.700000e-01 1:8.21200 2:9.86169 3:8.15632 4:8.72302 5:8.87287
1.700000e-01 1:7.89652 2:10.87051 3:8.86172 4:9.44429 5:9.75105
1.700000e-01 1:8.18471 2:9.88705 3:8.03498 4:9.00018 5:9.57234
1.700000e-01 1:8.08933 2:9.67211 3:8.48831 4:9.25056 5:9.35725
1.700000e-01 1:7.68023 2:10.92796 3:8.30791 4:8.96596 5:9.28326
1.700000e-01 1:8.23219 2:10.32320 3:8.89084 4:8.89679 5:9.54070
1.700000e-01 1:8.12622 2:10.90692 3:8.92577 4:9.15166 5:8.85708
1.700000e-01 1:8.22960 2:9.98609 3:7.63810 4:8.60977 5:8.95490
1.700000e-01 1:7.90525 2:10.86540 3:8.09180 4:8.84243 5:8.91073
1.700000e-01 1:8.19906 2:9.71837 3:8.03705 4:9.04763 5:9.13003
1.700000e-01 1:8.28602 2:10.01987 3:9.26862 4:9.02662 5:8.78476
1.700000e-01 1:8.19876 2:10.33593 3:9.92369 4:9.81738 5:8.83962
1.700000e-01 1:8.09827 2:10.80599 3:9.26205 4:9.06242 5:8.91783
1.700000e-01 1:8.25182 2:10.13204 3:8.44122 4:8.46681 5:9.69196
1.700000e-01 1:8.03561 2:10.22058 3:7.92368 4:8.30045 5:8.83583
1.700000e-01 1:7.89132 2:9.74895 3:8.24393 4:8.32868 5:9.07076
1.639958e-02 1:8.22004 2:8.56110 3:7.90500 4:7.90418 5:7.39000
1.700000e-01 1:8.08891 2:13.08396 3:9.89692 4:10.34649 5:10.54067
1.700000e-01 1:8.39677 2:12.25780 3:9.75791 4:10.62071 5:10.33989
9.567316e-02 1:8.42167 2:13.87101 3:12.25504 4:12.32601 5:11.94365
1.700000e-01 1:8.52033 2:11.37644 3:9.52702 4:10.09364 5:9.15705
1.700000e-01 1:8.12651 2:10.22586 3:8.75237 4:8.95112 5:8.70583
1.700000e-01 1:8.11400 2:9.82535 3:8.69795 4:9.02349 5:9.36308
5.978627e-02 1:8.25410 2:9.52038 3:8.30751 4:8.58641 5:8.89428
4.210994e-02 1:8.24776 2:8.49306 3:6.54055 4:6.79875 5:6.49014
2.814908e-03 1:8.19747 2:7.97560 3:6.81500 4:6.79921 5:7.05922
1.700000e-01 1:7.94349 2:10.70909 3:9.16982 4:9.10608 5:8.95357
1.700000e-01 1:8.38209 2:9.98519 3:7.99254 4:8.77263 5:8.72853
1.700000e-01 1:8.13488 2:10.19879 3:8.77108 4:9.77382 5:10.19521
9.371794e-02 1:5.04933 2:9.52006 3:7.41530 4:7.45364 5:6.42150
1.700000e-01 1:8.04592 2:10.60546 3:8.78638 4:8.92030 5:8.89554
5.111137e-02 1:7.41097 2:8.63723 3:6.55467 4:6.87212 5:8.25568
1.700000e-01 1:8.15642 2:10.36533 3:8.35099 4:9.00707 5:8.89453
1.700000e-01 1:8.29893 2:10.32887 3:8.03668 4:8.62826 5:8.54980
1.700000e-01 1:7.49527 2:10.81882 3:9.93988 4:10.78583 5:9.86481
1.700000e-01 1:7.92065 2:10.14778 3:8.36321 4:9.06863 5:9.64213
1.700000e-01 1:8.52600 2:10.06691 3:7.45303 4:8.13030 5:7.60862
1.700000e-01 1:8.09819 2:10.59315 3:8.31792 4:9.07016 5:8.85994
1.700000e-01 1:8.19482 2:9.82503 3:8.74161 4:9.56018 5:9.25091
1.700000e-01 1:8.56008 2:9.87206 3:8.06039 4:8.79739 5:8.62461
1.700000e-01 1:8.27492 2:10.00416 3:8.17024 4:8.89538 5:9.39282
1.700000e-01 1:8.44873 2:10.27461 3:7.35115 4:8.13255 5:7.61744
1.700000e-01 1:8.23361 2:10.53361 3:8.57234 4:9.25195 5:9.37483
1.700000e-01 1:8.47898 2:10.08682 3:7.33037 4:7.80325 5:7.78016
1.700000e-01 1:8.17749 2:10.01623 3:7.35703 4:7.28981 5:8.11417
1.700000e-01 1:8.11019 2:9.46828 3:8.12139 4:8.58859 5:9.06940
1.700000e-01 1:8.19834 2:10.06061 3:7.42559 4:7.71443 5:7.87276
1.616798e-01 1:8.49235 2:10.19393 3:7.36527 4:7.58592 5:7.82866
1.700000e-01 1:8.40343 2:10.58417 3:8.27726 4:8.72410 5:8.51633
1.700000e-01 1:8.50780 2:9.71325 3:7.42174 4:8.07249 5:7.72325
7.907210e-02 1:8.03064 2:9.96509 3:7.39995 4:8.03533 5:7.58734
1.700000e-01 1:8.14945 2:10.57668 3:7.91821 4:9.11509 5:9.32716
1.140414e-01 1:8.40338 2:10.09198 3:7.59340 4:8.31719 5:9.00578
1.700000e-01 1:8.34081 2:10.23034 3:8.32998 4:8.84031 5:8.43892
1.388593e-02 1:7.97703 2:10.50503 3:7.47903 4:8.14432 5:7.28171
1.700000e-01 1:8.41007 2:10.42392 3:7.84662 4:8.79404 5:8.83406
1.700000e-01 1:8.37719 2:10.76177 3:7.92723 4:8.88945 5:8.51548
1.700000e-01 1:8.28053 2:10.35625 3:8.21003 4:8.83559 5:8.43133
1.700000e-01 1:8.21517 2:10.43865 3:8.04650 4:8.78213 5:9.20646
3.526398e-02 1:8.22879 2:10.29445 3:7.40639 4:8.05949 5:7.50745
1.700000e-01 1:8.28155 2:12.16340 3:8.90098 4:9.06274 5:9.17816
1.700000e-01 1:8.39483 2:11.32416 3:9.53389 4:10.23285 5:9.61758
1.700000e-01 1:8.21871 2:10.39868 3:9.11008 4:9.18960 5:8.68212
1.700000e-01 1:8.44000 2:10.49587 3:7.49625 4:7.67942 5:7.94701
1.700000e-01 1:8.16105 2:9.69271 3:7.27839 4:7.96484 5:7.73626
1.700000e-01 1:7.97524 2:11.71034 3:8.83427 4:9.45736 5:9.28612
1.700000e-01 1:8.18760 2:10.34710 3:8.06520 4:9.33306 5:9.24287
1.700000e-01 1:8.10285 2:11.50253 3:8.05359 4:8.97115 5:9.49815
1.700000e-01 1:8.16929 2:9.85050 3:7.46525 4:8.43997 5:9.51524
1.700000e-01 1:7.68419 2:11.39790 3:8.08833 4:8.98497 5:9.35349
1.700000e-01 1:8.39706 2:11.23400 3:8.73690 4:10.00713 5:10.60534
1.700000e-01 1:8.03587 2:9.63875 3:7.57126 4:8.73405 5:9.95870
1.700000e-01 1:8.31924 2:11.14484 3:8.14349 4:8.92827 5:9.32885
2.877956e-02 1:7.68403 2:11.62815 3:7.92879 4:9.14476 5:9.07187
1.700000e-01 1:8.22133 2:10.28424 3:7.54197 4:8.50968 5:9.66741
1.700000e-01 1:8.09153 2:9.78897 3:8.15577 4:8.66222 5:8.94788
1.700000e-01 1:7.93112 2:11.08566 3:7.83525 4:8.59563 5:9.03282
1.700000e-01 1:8.32546 2:10.58916 3:8.13999 4:9.20673 5:9.85262
1.700000e-01 1:8.05626 2:11.00271 3:8.08489 4:8.88026 5:9.27512
1.700000e-01 1:8.25109 2:10.40965 3:8.04067 4:8.92323 5:8.82186
1.700000e-01 1:7.71069 2:11.66444 3:8.78495 4:8.91001 5:9.42378
1.700000e-01 1:8.28214 2:10.68266 3:8.36674 4:9.30949 5:9.94739
1.700000e-01 1:8.15626 2:11.69018 3:9.37333 4:9.98382 5:9.94836
1.700000e-01 1:8.37296 2:11.23731 3:8.83706 4:10.01875 5:10.30515
1.700000e-01 1:8.21554 2:10.12522 3:7.66906 4:8.37790 5:9.80511
1.700000e-01 1:8.19510 2:11.72456 3:9.58667 4:10.43090 5:10.40566
1.700000e-01 1:8.38161 2:10.98941 3:8.73186 4:10.16653 5:10.65391
1.700000e-01 1:8.15591 2:10.25839 3:8.20911 4:9.37403 5:9.21845
5.591421e-03 1:7.70890 2:8.56660 3:7.61537 4:7.81951 5:7.79118
1.700000e-01 1:8.01093 2:9.52590 3:8.19016 4:8.30693 5:9.30165
1.700000e-01 1:8.41488 2:10.13499 3:8.99062 4:9.10926 5:8.60024
1.700000e-01 1:8.24665 2:11.10648 3:9.16084 4:9.59714 5:9.25321
1.700000e-01 1:8.16269 2:10.37837 3:8.75503 4:9.40794 5:9.03232
1.700000e-01 1:8.36572 2:9.85735 3:9.32339 4:9.35716 5:8.70370
1.700000e-01 1:8.30871 2:10.71440 3:8.30709 4:8.92142 5:9.81844
1.700000e-01 1:7.98570 2:11.15406 3:8.84567 4:9.25854 5:9.61025
1.700000e-01 1:8.27202 2:10.43876 3:8.49250 4:9.66269 5:9.90613
1.700000e-01 1:7.82317 2:12.18187 3:9.28247 4:9.99275 5:9.27278
1.700000e-01 1:8.28470 2:9.97976 3:9.05237 4:9.66949 5:9.65056
1.700000e-01 1:8.26802 2:10.11469 3:8.17380 4:8.89745 5:8.84153
1.700000e-01 1:8.00266 2:10.70370 3:8.54771 4:8.60009 5:8.92775
1.700000e-01 1:8.33070 2:10.12468 3:8.57424 4:8.80254 5:8.56570
1.700000e-01 1:8.33351 2:10.51424 3:8.63172 4:8.93973 5:8.52226
1.700000e-01 1:8.09966 2:10.30465 3:8.41827 4:8.78092 5:8.51247
1.700000e-01 1:8.34961 2:10.58765 3:8.24833 4:8.66025 5:8.55275
1.700000e-01 1:8.37974 2:10.03102 3:8.45998 4:8.81717 5:9.32826
1.700000e-01 1:8.30414 2:10.20722 3:8.00703 4:8.56267 5:8.62597
3.900054e-03 1:8.28312 2:9.87600 3:7.31259 4:7.80519 5:7.91934
1.700000e-01 1:8.09210 2:10.31841 3:7.92430 4:8.30650 5:8.76889
1.372117e-01 1:8.19579 2:10.20689 3:8.32958 4:8.39870 5:8.68491
1.448201e-01 1:6.63371 2:10.76948 3:10.61807 4:11.10760 5:11.19543
1.700000e-01 1:7.99398 2:10.57429 3:8.59583 4:8.77815 5:8.76014
1.700000e-01 1:8.11947 2:9.96073 3:8.63097 4:8.76837 5:8.77151
1.700000e-01 1:8.36311 2:10.02461 3:7.41140 4:7.80034 5:7.81276
1.700000e-01 1:8.11570 2:10.90595 3:8.89181 4:9.21167 5:9.70010
5.146563e-03 1:8.04977 2:9.77872 3:7.43476 4:7.93724 5:7.72704
1.172788e-01 1:8.18499 2:10.17400 3:8.92721 4:8.99724 5:8.53464
1.700000e-01 1:8.11223 2:9.65364 3:7.99720 4:8.87429 5:8.97400
1.700000e-01 1:8.22688 2:10.71242 3:9.26343 4:9.91159 5:9.90825
1.700000e-01 1:8.31636 2:10.65808 3:9.23562 4:9.66130 5:9.54467
1.700000e-01 1:7.64618 2:10.67943 3:9.02079 4:9.25701 5:9.53501
1.700000e-01 1:8.32206 2:10.53527 3:9.73031 4:9.65215 5:8.72399
1.700000e-01 1:8.05668 2:10.90241 3:8.88852 4:9.17715 5:9.22224
1.700000e-01 1:8.33734 2:10.34958 3:8.51247 4:8.67732 5:9.39944
8.455806e-04 1:8.38068 2:10.14809 3:9.44698 4:9.22740 5:8.71409
1.700000e-01 1:8.05846 2:11.01176 3:8.25082 4:8.58329 5:9.02675
1.700000e-01 1:7.92653 2:10.57847 3:8.40395 4:9.02248 5:8.50822
1.700000e-01 1:8.17718 2:10.01871 3:8.43391 4:9.17978 5:9.62521
1.700000e-01 1:7.94731 2:9.63676 3:7.48274 4:8.18590 5:7.53538
1.700000e-01 1:8.27596 2:9.97220 3:7.99249 4:8.66146 5:8.90263
1.700000e-01 1:7.98700 2:10.33272 3:8.37102 4:8.40458 5:8.88161
1.700000e-01 1:7.91723 2:11.06454 3:9.84876 4:9.58461 5:9.16310
1.700000e-01 1:8.12229 2:10.78029 3:9.84002 4:9.91808 5:9.89019
1.700000e-01 1:8.19420 2:10.53333 3:9.82060 4:9.41980 5:9.59366
1.700000e-01 1:8.17439 2:10.35109 3:8.92946 4:8.90867 5:9.09210
1.700000e-01 1:7.90206 2:10.22175 3:9.30380 4:9.03573 5:8.72511
1.700000e-01 1:7.71308 2:10.92980 3:9.87293 4:10.07214 5:9.33088
1.700000e-01 1:8.20709 2:10.91521 3:8.75722 4:8.69154 5:8.79786
1.700000e-01 1:8.29843 2:10.26952 3:8.59999 4:8.97371 5:8.75164
1.700000e-01 1:8.24876 2:11.14177 3:9.23585 4:8.88783 5:9.09312
1.700000e-01 1:8.32943 2:11.21874 3:9.30407 4:9.35190 5:9.23012
1.700000e-01 1:8.32438 2:10.57464 3:9.37986 4:9.08980 5:8.81789
1.700000e-01 1:8.27343 2:9.91014 3:8.36060 4:8.60427 5:8.67026
1.700000e-01 1:8.16872 2:10.30586 3:8.04643 4:8.44644 5:8.87062
1.700000e-01 1:8.07577 2:10.01075 3:8.22569 4:8.50897 5:8.96278
1.700000e-01 1:8.23411 2:9.98921 3:8.11404 4:8.37545 5:8.97993
1.700000e-01 1:8.18315 2:9.90543 3:8.41695 4:8.60145 5:8.74381
1.700000e-01 1:7.92192 2:11.31294 3:8.41939 4:8.98862 5:9.20236
1.700000e-01 1:8.23001 2:10.76412 3:8.28463 4:8.83246 5:9.18239
1.700000e-01 1:8.19393 2:10.55578 3:8.32979 4:8.77505 5:8.94449
1.700000e-01 1:8.26068 2:10.10894 3:8.44362 4:8.70389 5:8.61199
1.700000e-01 1:7.69392 2:11.06830 3:10.11209 4:10.29832 5:10.23468
1.700000e-01 1:8.11916 2:11.03753 3:10.17559 4:9.72416 5:9.50506
1.700000e-01 1:8.34926 2:10.46168 3:9.06774 4:8.37871 5:8.91276
1.700000e-01 1:8.32530 2:10.15051 3:8.66428 4:8.50722 5:8.77550
1.700000e-01 1:8.38158 2:10.46149 3:9.27065 4:9.03024 5:9.11115
1.700000e-01 1:8.39001 2:11.56356 3:9.79994 4:9.57468 5:9.05695
1.700000e-01 1:8.20953 2:10.67627 3:9.38468 4:9.63074 5:8.87551
1.700000e-01 1:8.31660 2:10.23069 3:8.42495 4:8.58328 5:8.70605
1.700000e-01 1:8.39222 2:10.40633 3:9.12675 4:9.14443 5:8.95645
1.700000e-01 1:8.10623 2:10.15424 3:8.57312 4:8.73460 5:8.68723
1.700000e-01 1:8.35451 2:10.97952 3:9.01640 4:9.44040 5:9.92451
1.700000e-01 1:8.27779 2:10.34423 3:7.89966 4:8.69747 5:8.91516
1.700000e-01 1:8.18568 2:10.12599 3:7.93639 4:8.58014 5:8.93198
1.700000e-01 1:8.34579 2:10.79993 3:9.66759 4:9.55003 5:9.44353
1.682868e-01 1:8.36804 2:11.19042 3:9.65310 4:9.45158 5:8.72639
1.700000e-01 1:8.26496 2:10.42341 3:9.64819 4:9.83855 5:9.76806
1.700000e-01 1:8.40791 2:10.53948 3:9.47355 4:9.46352 5:8.70584
1.700000e-01 1:7.86426 2:11.45068 3:8.37484 4:9.24730 5:9.17263
1.700000e-01 1:8.12459 2:11.42162 3:9.13301 4:9.29332 5:9.36827
1.700000e-01 1:8.10773 2:11.50139 3:9.85128 4:10.29504 5:9.81328
1.700000e-01 1:8.33046 2:10.95332 3:10.35045 4:10.06455 5:9.13243
1.700000e-01 1:8.18199 2:11.65415 3:10.39916 4:9.87353 5:9.35277
1.700000e-01 1:8.13736 2:10.00998 3:9.71588 4:9.43292 5:9.07060
1.700000e-01 1:8.24131 2:11.17634 3:8.41748 4:8.82567 5:9.48818
1.700000e-01 1:8.16763 2:10.10632 3:8.49516 4:8.88511 5:9.38697
1.700000e-01 1:8.25257 2:9.93680 3:8.06613 4:8.56456 5:8.73695
1.700000e-01 1:8.02810 2:11.70415 3:8.11120 4:9.33591 5:9.22335
1.700000e-01 1:8.15258 2:10.80951 3:7.91339 4:8.62855 5:8.81184
1.700000e-01 1:8.26365 2:10.35318 3:8.25640 4:9.05025 5:9.03776
1.700000e-01 1:8.24598 2:9.98308 3:7.89352 4:8.85184 5:8.99492
1.700000e-01 1:8.11620 2:10.37102 3:7.94999 4:8.86152 5:9.19538
1.700000e-01 1:8.19655 2:10.28027 3:8.22153 4:9.47656 5:9.34915
1.700000e-01 1:8.24306 2:10.22771 3:8.24545 4:8.85052 5:9.35681
1.700000e-01 1:8.28671 2:9.78927 3:7.94337 4:8.46838 5:9.09286
1.700000e-01 1:7.96828 2:10.68412 3:8.14443 4:8.85403 5:8.53885
1.700000e-01 1:8.19582 2:10.65618 3:8.32687 4:9.17424 5:9.45113
1.700000e-01 1:8.18338 2:9.83805 3:7.80988 4:8.55669 5:8.90282
1.700000e-01 1:8.25553 2:10.63337 3:8.14875 4:9.01419 5:9.28238
1.700000e-01 1:7.81914 2:10.18702 3:7.95826 4:8.86119 5:9.10111
1.700000e-01 1:8.30421 2:10.01146 3:7.76012 4:8.56156 5:9.05624
1.700000e-01 1:8.13817 2:10.26463 3:7.74313 4:8.74781 5:8.84527
1.700000e-01 1:8.31749 2:10.17919 3:7.82468 4:8.22190 5:9.08716
1.700000e-01 1:8.29831 2:10.44719 3:8.12829 4:8.85573 5:9.29619
1.700000e-01 1:8.34042 2:10.25188 3:8.28586 4:9.27008 5:9.19683
1.700000e-01 1:8.21351 2:9.62004 3:8.00208 4:8.74962 5:8.91694
1.700000e-01 1:8.37042 2:10.32759 3:7.80027 4:8.37747 5:8.72507
1.700000e-01 1:8.26645 2:10.45491 3:8.01444 4:8.68559 5:8.64186
1.700000e-01 1:8.29260 2:10.21614 3:8.06550 4:8.77990 5:8.63370
1.700000e-01 1:8.41194 2:10.27155 3:7.93483 4:9.08374 5:9.26109
1.637763e-02 1:8.25954 2:9.82265 3:7.45497 4:7.48809 5:8.01356
1.700000e-01 1:8.06956 2:10.75638 3:7.89072 4:8.71696 5:8.89650
1.700000e-01 1:8.29919 2:10.22469 3:7.63177 4:8.46872 5:9.02625
1.700000e-01 1:8.30089 2:10.59896 3:7.80824 4:8.28355 5:8.89895
1.700000e-01 1:8.16756 2:10.60524 3:8.01272 4:8.90443 5:8.79675
1.700000e-01 1:8.20057 2:10.85801 3:8.71000 4:9.27476 5:9.41491
1.700000e-01 1:8.23162 2:11.14953 3:7.91634 4:9.08126 5:8.65742
1.700000e-01 1:8.37375 2:10.19167 3:7.84396 4:8.48265 5:8.90134
1.700000e-01 1:8.07267 2:10.34630 3:8.24104 4:9.00348 5:9.10971
1.700000e-01 1:8.13276 2:10.72022 3:8.14764 4:8.99034 5:9.25446
1.700000e-01 1:8.20432 2:10.21876 3:8.14214 4:8.96000 5:9.25345
1.700000e-01 1:8.21112 2:9.99306 3:7.72927 4:8.29680 5:9.13486
1.700000e-01 1:8.23004 2:10.36307 3:7.81949 4:8.77892 5:8.71187
1.700000e-01 1:8.39523 2:10.36988 3:7.58839 4:8.43044 5:9.08100
1.700000e-01 1:8.32450 2:10.06623 3:7.85673 4:8.49789 5:8.78505
1.700000e-01 1:8.32369 2:10.54185 3:7.72820 4:8.71125 5:8.75826
1.700000e-01 1:8.22680 2:10.00858 3:7.83064 4:8.92635 5:9.51568
1.700000e-01 1:8.14235 2:10.66882 3:7.79351 4:8.73727 5:8.72413
1.700000e-01 1:8.33623 2:10.98115 3:8.33775 4:9.50659 5:9.72392
1.700000e-01 1:8.33829 2:10.22813 3:7.66845 4:8.33823 5:9.04749
1.700000e-01 1:8.04111 2:10.93472 3:7.73025 4:8.66590 5:9.17096
1.700000e-01 1:8.17198 2:10.42709 3:7.66843 4:8.22863 5:8.96382
1.700000e-01 1:8.18385 2:10.18285 3:8.22124 4:8.93940 5:9.26172
1.700000e-01 1:8.21784 2:10.12695 3:7.60449 4:8.62837 5:9.16124
1.700000e-01 1:8.14484 2:10.25353 3:7.78885 4:8.30022 5:8.99967
1.700000e-01 1:8.13007 2:10.38118 3:7.89724 4:9.03777 5:8.70748
1.700000e-01 1:8.33629 2:10.82249 3:8.07761 4:9.05789 5:8.84615
1.700000e-01 1:8.37889 2:10.76098 3:8.31826 4:9.01203 5:9.10063
1.700000e-01 1:8.21761 2:10.53649 3:7.91944 4:8.76896 5:9.44664
1.700000e-01 1:8.29130 2:10.05473 3:7.86755 4:8.53058 5:9.38681
1.700000e-01 1:8.24522 2:10.24462 3:7.95661 4:8.74046 5:9.00040
1.700000e-01 1:8.14056 2:10.85620 3:7.66744 4:8.52991 5:9.21875
1.700000e-01 1:8.14509 2:11.19843 3:8.45728 4:8.70895 5:9.65586
1.700000e-01 1:8.32623 2:10.74742 3:8.25356 4:8.76153 5:8.83276
1.700000e-01 1:8.40954 2:10.69700 3:7.51680 4:8.31076 5:8.89227
1.700000e-01 1:8.18153 2:10.29775 3:7.91710 4:8.82779 5:9.43815
1.700000e-01 1:8.24203 2:10.03120 3:7.80235 4:9.12465 5:9.29163
1.700000e-01 1:8.27483 2:10.20444 3:8.03366 4:8.87666 5:9.19919
1.700000e-01 1:8.15248 2:10.61820 3:7.88489 4:8.53588 5:8.77406
1.700000e-01 1:8.15988 2:10.45675 3:8.08119 4:8.96849 5:9.44646
1.700000e-01 1:8.21511 2:10.37851 3:7.98577 4:8.55580 5:9.44106
1.700000e-01 1:8.17742 2:11.32796 3:8.44902 4:8.98873 5:9.17493
1.700000e-01 1:8.17991 2:10.73607 3:8.37209 4:9.34140 5:9.48954
1.700000e-01 1:8.19690 2:10.45578 3:8.68118 4:9.40770 5:10.10740
1.700000e-01 1:8.11345 2:10.11622 3:7.89676 4:8.87894 5:8.94704
1.606202e-01 1:8.18139 2:9.95548 3:7.32783 4:7.66755 5:7.97614
1.700000e-01 1:8.17089 2:10.23044 3:7.68835 4:8.48576 5:8.93988
1.700000e-01 1:8.21732 2:10.33022 3:7.52491 4:8.59926 5:9.10435
1.700000e-01 1:8.18322 2:10.65788 3:7.78917 4:8.83387 5:9.23749
1.700000e-01 1:8.21425 2:9.83528 3:7.92015 4:8.75648 5:9.17191
1.700000e-01 1:8.42959 2:10.69301 3:7.71586 4:8.40861 5:8.99325
1.700000e-01 1:8.43859 2:10.50093 3:7.92990 4:8.90054 5:9.37910
1.700000e-01 1:8.30042 2:10.64751 3:7.68062 4:8.74905 5:8.92818
1.700000e-01 1:8.37499 2:10.56966 3:7.96425 4:9.08660 5:9.19175
1.700000e-01 1:8.25435 2:9.97627 3:7.47859 4:7.55261 5:8.07952
1.700000e-01 1:8.20390 2:9.90839 3:7.81955 4:8.63067 5:8.92119
1.700000e-01 1:8.16363 2:10.26228 3:7.57979 4:8.48192 5:8.93560
1.700000e-01 1:8.04183 2:10.98245 3:9.21557 4:9.57350 5:9.21864
1.700000e-01 1:8.34763 2:11.22709 3:8.07389 4:8.97311 5:9.63794
1.700000e-01 1:8.41371 2:10.82407 3:7.52452 4:8.31536 5:9.07340
4.184282e-02 1:7.59763 2:6.56239 3:7.15754 4:7.53621 5:7.63302
1.700000e-01 1:8.36048 2:11.62770 3:10.26631 4:10.20913 5:9.14405
1.700000e-01 1:8.35638 2:11.24860 3:8.96189 4:9.11526 5:8.72116
1.700000e-01 1:8.29181 2:10.18724 3:8.71378 4:8.35458 5:8.81023
1.700000e-01 1:8.24767 2:10.36383 3:7.95270 4:8.27779 5:8.90697
1.700000e-01 1:8.44262 2:10.13561 3:8.07284 4:8.41391 5:8.69611
1.700000e-01 1:8.31870 2:11.64328 3:9.53009 4:10.25506 5:9.57422
1.700000e-01 1:8.44440 2:11.28061 3:9.06643 4:9.95902 5:9.37196
1.700000e-01 1:8.02638 2:12.27228 3:8.82899 4:8.74636 5:9.66944
1.700000e-01 1:8.22694 2:10.35978 3:9.17957 4:9.04406 5:8.96615
1.700000e-01 1:8.14938 2:10.38770 3:8.03769 4:8.41439 5:8.75773
1.311887e-01 1:8.38114 2:10.63738 3:10.24919 4:10.05523 5:9.03774
1.700000e-01 1:8.17264 2:11.22885 3:10.11547 4:9.78244 5:9.15022
1.700000e-01 1:8.42749 2:10.33128 3:7.87317 4:8.62436 5:8.68120
1.420115e-01 1:8.31617 2:9.89641 3:7.81332 4:8.80094 5:8.65808
1.700000e-01 1:8.29177 2:9.93286 3:7.84178 4:9.00080 5:8.97911
1.700000e-01 1:8.32818 2:9.89081 3:7.91920 4:8.54568 5:9.00391
1.700000e-01 1:8.33754 2:10.15547 3:7.93874 4:9.05755 5:8.96505
1.700000e-01 1:8.20689 2:9.59097 3:7.86895 4:8.70560 5:9.00390
1.700000e-01 1:8.14623 2:10.96390 3:8.13856 4:8.70328 5:8.62238
1.700000e-01 1:8.24211 2:10.74463 3:8.94424 4:8.87021 5:9.20450
1.700000e-01 1:8.14624 2:10.12938 3:9.59919 4:9.62379 5:9.05017
1.700000e-01 1:8.28098 2:9.95241 3:8.35634 4:8.81092 5:8.74522
1.700000e-01 1:8.28984 2:9.98730 3:7.68086 4:8.37458 5:9.09904
1.700000e-01 1:8.22061 2:10.44482 3:8.39075 4:8.70706 5:8.64524
1.700000e-01 1:8.28310 2:10.37323 3:7.54904 4:8.45084 5:8.97079
1.700000e-01 1:8.16675 2:10.66143 3:7.80624 4:8.67002 5:8.72533
1.700000e-01 1:8.27250 2:10.25827 3:8.08585 4:8.71522 5:8.84023
1.700000e-01 1:8.33621 2:10.71069 3:8.15043 4:8.29087 5:8.91908
1.700000e-01 1:8.24251 2:10.95856 3:8.91682 4:9.18159 5:9.10351
1.700000e-01 1:8.20553 2:10.30355 3:7.70411 4:8.73875 5:9.26474
1.700000e-01 1:8.30818 2:10.45752 3:7.89485 4:8.45338 5:8.79573
6.418336e-02 1:7.06768 2:6.31214 3:7.51856 4:7.73257 5:8.08002
-1.700000e-01 1:8.29735 2:11.09871 3:8.60331 4:9.09410 5:9.30883
-1.700000e-01 1:8.25244 2:10.91156 3:9.59363 4:9.51421 5:9.66558
-1.700000e-01 1:8.08990 2:10.24341 3:9.03224 4:8.86251 5:9.34370
-1.700000e-01 1:8.28045 2:10.80945 3:8.92810 4:9.05667 5:9.00567
-1.700000e-01 1:8.04467 2:10.63781 3:9.45882 4:9.90127 5:9.58241
-1.700000e-01 1:8.14695 2:10.70039 3:8.99243 4:8.82867 5:8.49746
-1.700000e-01 1:8.18278 2:10.52483 3:9.38227 4:9.57528 5:9.40579
-1.700000e-01 1:8.25254 2:10.61073 3:9.30932 4:9.34605 5:9.24206
-1.700000e-01 1:8.22824 2:10.87305 3:9.14751 4:9.47541 5:9.16426
-1.700000e-01 1:8.26151 2:10.83864 3:8.16506 4:8.51081 5:9.08639
-1.700000e-01 1:8.29941 2:10.80327 3:8.48405 4:8.90916 5:9.34277
-1.700000e-01 1:8.31645 2:10.78830 3:8.15480 4:8.84720 5:9.24077
-1.700000e-01 1:8.33589 2:10.99069 3:8.22558 4:8.89002 5:9.59729
-1.700000e-01 1:8.34367 2:10.76196 3:7.76583 4:8.39330 5:8.97434
-1.700000e-01 1:8.31357 2:10.95260 3:8.39280 4:8.79945 5:9.44770
-1.700000e-01 1:8.25282 2:10.49016 3:7.78824 4:8.63625 5:8.95726
-1.700000e-01 1:8.18408 2:10.92335 3:7.98580 4:8.20667 5:8.99562
-1.700000e-01 1:8.23290 2:10.31434 3:7.99546 4:8.35966 5:9.07413
-1.700000e-01 1:8.19823 2:9.96280 3:7.51440 4:8.46003 5:8.19962
-1.700000e-01 1:8.18449 2:10.79554 3:9.29989 4:9.46416 5:8.89249
-1.700000e-01 1:8.08595 2:10.89142 3:9.53248 4:9.50614 5:9.32273
-1.700000e-01 1:8.06995 2:10.95648 3:9.33554 4:9.77705 5:9.41579
-1.700000e-01 1:8.04450 2:11.02620 3:9.74593 4:9.78153 5:9.67671
-1.700000e-01 1:8.24932 2:11.03829 3:9.31794 4:9.32776 5:9.46749
-1.700000e-01 1:7.92695 2:10.83344 3:9.27572 4:9.56759 5:9.41279
-1.700000e-01 1:8.29185 2:11.06338 3:8.53471 4:8.90116 5:9.33987
-1.700000e-01 1:8.18397 2:10.80610 3:8.48313 4:8.85191 5:9.40656
-1.700000e-01 1:8.28178 2:11.01836 3:8.82228 4:8.99931 5:9.35303
-1.700000e-01 1:8.22129 2:10.56283 3:8.36422 4:8.75614 5:9.28471
-1.700000e-01 1:8.26071 2:10.67676 3:7.85385 4:8.94896 5:9.67736
-1.700000e-01 1:8.39668 2:10.67197 3:8.15217 4:8.95257 5:9.36507
-1.700000e-01 1:8.17409 2:10.26510 3:7.67254 4:8.50802 5:8.81394
-1.700000e-01 1:8.11398 2:10.85006 3:7.57014 4:8.40984 5:8.94832
-1.700000e-01 1:8.27200 2:10.69799 3:7.76753 4:8.46250 5:9.40316
-1.700000e-01 1:8.28909 2:10.39363 3:7.76469 4:8.72842 5:9.17155
-1.700000e-01 1:8.24423 2:10.44343 3:7.99512 4:8.43929 5:9.31525
-1.700000e-01 1:8.14287 2:10.17720 3:8.02513 4:8.37433 5:9.19201
-1.700000e-01 1:8.05302 2:10.35822 3:7.96587 4:8.48662 5:9.04006
-1.700000e-01 1:8.15013 2:10.53120 3:7.96550 4:8.86078 5:9.21896
-1.700000e-01 1:8.11584 2:10.70072 3:9.34233 4:9.61795 5:9.41886
-1.700000e-01 1:8.21848 2:10.88244 3:8.81629 4:9.25283 5:9.22565
-1.700000e-01 1:8.21078 2:10.77995 3:9.27473 4:9.08522 5:9.46087
-1.700000e-01 1:8.34655 2:10.81282 3:9.32009 4:9.38398 5:9.15860
-1.700000e-01 1:8.24459 2:10.82107 3:8.55164 4:8.81193 5:9.08424
-1.700000e-01 1:8.30754 2:10.79607 3:8.36527 4:8.72179 5:9.50223
-1.700000e-01 1:8.32023 2:10.64109 3:8.23039 4:8.66346 5:9.12827
-1.700000e-01 1:8.33057 2:10.62373 3:8.24454 4:9.02762 5:9.33354
-1.700000e-01 1:8.34997 2:10.35086 3:8.23785 4:8.72892 5:9.38057
-1.700000e-01 1:8.26657 2:10.28757 3:8.50637 4:8.93711 5:8.86634
-1.700000e-01 1:8.35849 2:10.86027 3:8.37797 4:9.27487 5:9.21073
-1.700000e-01 1:8.32352 2:10.75456 3:8.42336 4:9.15374 5:9.14816
-1.700000e-01 1:8.29204 2:10.92855 3:8.16474 4:8.96631 5:9.51418
-1.700000e-01 1:8.30282 2:10.80359 3:8.20424 4:8.72760 5:9.73127
-1.700000e-01 1:8.17967 2:9.93148 3:7.62404 4:8.35491 5:9.35512
-1.700000e-01 1:8.18049 2:10.78930 3:8.08481 4:8.76083 5:9.11693
-1.700000e-01 1:8.17934 2:10.67691 3:8.91905 4:9.03071 5:9.23195
-1.700000e-01 1:8.31302 2:11.13673 3:9.40853 4:9.26270 5:9.49970
-1.700000e-01 1:8.24390 2:11.21000 3:9.66778 4:9.74545 5:9.68398
-1.700000e-01 1:8.31721 2:10.58782 3:8.10783 4:8.89628 5:9.32795
-1.700000e-01 1:8.30991 2:10.60424 3:7.93758 4:9.57562 5:9.67557
-1.700000e-01 1:8.26989 2:10.65626 3:8.36925 4:9.04257 5:9.27810
-1.700000e-01 1:8.33779 2:10.45410 3:8.23022 4:8.74472 5:9.30420
-1.700000e-01 1:8.20097 2:10.62856 3:8.89419 4:9.36443 5:8.97326
-1.700000e-01 1:8.29159 2:10.34513 3:8.52235 4:9.29352 5:9.16521
-1.700000e-01 1:8.26074 2:10.30348 3:8.76094 4:9.05065 5:8.67992
-1.700000e-01 1:8.19726 2:10.15225 3:8.51639 4:9.33858 5:9.03358
-1.700000e-01 1:8.03170 2:10.24064 3:8.69340 4:9.17174 5:9.27625
-1.700000e-01 1:8.06641 2:10.13312 3:9.10564 4:9.66703 5:8.90984
-1.700000e-01 1:8.18007 2:9.87732 3:8.94135 4:9.28334 5:9.38456
-1.700000e-01 1:8.21381 2:10.19946 3:8.67586 4:8.91821 5:8.69330
-1.700000e-01 1:8.12462 2:10.35885 3:8.92304 4:9.20646 5:9.26326
-1.700000e-01 1:8.20195 2:10.26042 3:9.16511 4:9.52616 5:9.03411
-1.700000e-01 1:8.18564 2:10.06791 3:8.91053 4:9.45149 5:9.08718
-1.700000e-01 1:8.21394 2:10.17612 3:8.24305 4:9.04777 5:8.75335
-1.700000e-01 1:8.12450 2:10.31506 3:8.57379 4:9.44386 5:9.09075
-1.700000e-01 1:8.03696 2:10.14630 3:8.58856 4:9.36735 5:9.10320
-1.700000e-01 1:8.17269 2:10.27348 3:9.03026 4:9.48002 5:9.12632
-1.700000e-01 1:8.20517 2:10.32213 3:8.70309 4:9.17694 5:9.18614
-1.700000e-01 1:8.15954 2:10.20414 3:8.77519 4:9.27633 5:9.22921
-1.700000e-01 1:8.06801 2:10.15704 3:8.86719 4:9.32926 5:9.14072
-1.700000e-01 1:8.06783 2:9.82256 3:8.88925 4:9.12544 5:9.03919
-1.700000e-01 1:8.16696 2:10.27311 3:8.61847 4:9.13702 5:8.62059
-1.700000e-01 1:8.15884 2:10.24664 3:8.88663 4:9.06048 5:9.14697
-1.700000e-01 1:7.83892 2:10.13821 3:8.75557 4:9.66369 5:9.16013
-1.700000e-01 1:8.16016 2:10.03316 3:8.32023 4:9.39274 5:9.34125
-1.700000e-01 1:8.19157 2:10.24746 3:9.03067 4:8.81152 5:9.27759
-1.700000e-01 1:8.20189 2:10.38352 3:8.74028 4:9.55972 5:8.88367
-1.700000e-01 1:8.15291 2:10.08155 3:8.26025 4:9.17698 5:8.96172
-1.700000e-01 1:8.19424 2:9.72322 3:8.22450 4:9.07055 5:9.17499
-1.700000e-01 1:8.33163 2:11.00328 3:9.49963 4:10.32912 5:9.79371
-1.700000e-01 1:8.03103 2:10.70415 3:9.50379 4:9.59363 5:9.40347
-1.700000e-01 1:8.31555 2:10.16931 3:8.50239 4:8.84960 5:9.23004
-1.700000e-01 1:8.10062 2:10.37419 3:8.05723 4:8.99286 5:9.04891
-1.700000e-01 1:7.87850 2:10.71998 3:8.79709 4:9.37029 5:8.98285
-1.700000e-01 1:8.22578 2:10.66795 3:7.91734 4:9.08471 5:9.83590
-1.700000e-01 1:8.12334 2:10.81057 3:9.56625 4:10.08645 5:9.73705
-1.700000e-01 1:8.27326 2:10.38627 3:9.47858 4:9.67631 5:9.49070
-1.700000e-01 1:8.22103 2:10.22012 3:8.61097 4:9.02386 5:8.93145
-1.700000e-01 1:8.09041 2:10.04046 3:8.42374 4:9.10529 5:9.58858
-1.700000e-01 1:8.14526 2:10.10485 3:8.42559 4:8.76320 5:9.40806
-1.700000e-01 1:8.21739 2:10.26640 3:8.45493 4:9.01324 5:9.13882
-1.700000e-01 1:8.19613 2:10.30233 3:8.67598 4:9.14943 5:9.25150
-1.700000e-01 1:8.13804 2:10.09971 3:8.50072 4:9.07264 5:9.15490
-1.700000e-01 1:8.17985 2:10.17277 3:8.27890 4:9.14022 5:9.22778
-1.700000e-01 1:8.27140 2:10.12113 3:8.39661 4:8.88850 5:9.18604
-1.700000e-01 1:8.23443 2:10.00155 3:8.29954 4:8.81303 5:8.90954
-1.700000e-01 1:8.19555 2:10.03697 3:8.08174 4:8.83693 5:9.41419
-1.700000e-01 1:8.26969 2:9.99248 3:7.64402 4:8.47268 5:9.21033
-1.700000e-01 1:8.33741 2:10.01364 3:7.87438 4:8.31807 5:8.45967
-1.700000e-01 1:8.04216 2:10.16448 3:8.18839 4:9.03500 5:9.47938
-1.700000e-01 1:8.05803 2:10.06761 3:8.18364 4:8.86184 5:9.39370
-1.700000e-01 1:8.14142 2:10.22026 3:8.00170 4:9.05843 5:8.90189
-1.700000e-01 1:8.23460 2:10.29594 3:8.41711 4:9.13692 5:8.93647
-1.700000e-01 1:8.12673 2:9.87390 3:8.33082 4:9.21800 5:9.35475
-1.700000e-01 1:8.10806 2:10.07302 3:7.98431 4:8.55872 5:9.15048
-1.700000e-01 1:8.13325 2:10.13565 3:8.28202 4:8.93175 5:9.16931
-1.700000e-01 1:8.19106 2:10.03874 3:8.29406 4:8.98304 5:9.34964
-1.700000e-01 1:8.17538 2:10.20608 3:8.00219 4:8.77058 5:9.39433
-1.700000e-01 1:8.12967 2:9.88849 3:8.14044 4:9.21981 5:9.40739
-1.700000e-01 1:8.29129 2:10.76385 3:8.01780 4:8.76858 5:9.72486
-1.700000e-01 1:7.94607 2:10.11506 3:8.23387 4:8.61387 5:9.39948
-1.700000e-01 1:8.00698 2:10.09641 3:8.19837 4:8.81341 5:9.63366
-1.700000e-01 1:8.17644 2:10.19876 3:8.29213 4:8.90377 5:9.44474
-1.700000e-01 1:8.23704 2:10.15654 3:8.25695 4:8.50746 5:9.36550
-1.700000e-01 1:8.19352 2:10.29664 3:8.12148 4:8.99205 5:9.50196
-1.700000e-01 1:8.21800 2:10.05145 3:8.14457 4:9.13656 5:9.27079
-1.700000e-01 1:8.18627 2:10.06638 3:8.29156 4:8.98130 5:9.33444
-1.700000e-01 1:8.11872 2:10.13099 3:7.91687 4:8.73986 5:9.42383
-1.700000e-01 1:8.10858 2:10.07534 3:8.13679 4:8.66114 5:9.33695
-1.700000e-01 1:8.12388 2:10.19943 3:8.09926 4:8.38393 5:9.34908
-1.700000e-01 1:8.15696 2:10.04297 3:8.31901 4:8.90742 5:9.36340
-1.700000e-01 1:8.18598 2:10.32318 3:8.49572 4:8.95455 5:9.30583
-1.700000e-01 1:8.23495 2:10.26394 3:8.54543 4:9.27588 5:9.22452
-1.700000e-01 1:8.24667 2:10.15894 3:7.80691 4:8.92058 5:9.05407
-1.700000e-01 1:8.23690 2:10.18193 3:8.06853 4:8.73590 5:9.30490
-1.700000e-01 1:8.22787 2:10.07576 3:8.27983 4:8.91213 5:9.10425
-1.700000e-01 1:8.20548 2:9.37938 3:7.84617 4:8.52012 5:9.41447
-1.700000e-01 1:8.27715 2:9.48555 3:7.68158 4:8.31526 5:8.14918
-1.700000e-01 1:8.21740 2:10.68882 3:8.28476 4:8.95311 5:9.03420
-1.700000e-01 1:8.17199 2:9.83432 3:8.11769 4:8.91056 5:9.24169
-1.700000e-01 1:8.21532 2:10.45711 3:7.80482 4:7.73017 5:8.54186
-1.700000e-01 1:8.13375 2:10.19325 3:8.42143 4:9.14880 5:9.32106
-1.700000e-01 1:8.16664 2:9.96195 3:7.80110 4:8.84855 5:9.19732
-1.700000e-01 1:8.02978 2:10.44973 3:8.35229 4:8.70128 5:9.02238
-1.700000e-01 1:8.07283 2:10.37954 3:8.36111 4:8.92914 5:9.09375
-1.700000e-01 1:8.27316 2:10.36901 3:7.93877 4:8.88588 5:9.30872
-1.700000e-01 1:8.14119 2:10.13492 3:8.43426 4:9.07639 5:9.16071
-1.700000e-01 1:8.26346 2:10.31276 3:8.28801 4:8.69874 5:8.96884
-1.700000e-01 1:8.12346 2:9.78874 3:7.78660 4:8.41087 5:8.49560
-1.700000e-01 1:8.02859 2:10.57943 3:8.38576 4:8.69862 5:8.27509
-1.700000e-01 1:8.27313 2:10.40877 3:7.77593 4:8.45987 5:8.58230
-1.700000e-01 1:8.18288 2:9.58485 3:7.95137 4:8.44944 5:8.62602
-1.700000e-01 1:8.34351 2:9.66843 3:7.64644 4:8.38146 5:8.26008
-1.700000e-01 1:8.27911 2:10.18329 3:7.77553 4:8.06587 5:7.80850
-1.700000e-01 1:8.28832 2:10.35166 3:7.49270 4:8.17844 5:8.25525
-1.700000e-01 1:8.16674 2:10.02280 3:8.29118 4:8.06332 5:8.54991
-1.700000e-01 1:8.21942 2:10.30336 3:8.61694 4:9.03917 5:8.93690
-1.700000e-01 1:8.30977 2:10.49259 3:7.72160 4:8.57612 5:9.19022
-1.700000e-01 1:8.33743 2:10.26392 3:8.36417 4:8.73530 5:9.11812
-1.700000e-01 1:8.27975 2:9.96058 3:7.89059 4:9.04783 5:8.96481
-1.700000e-01 1:8.10781 2:10.31413 3:7.87356 4:8.52900 5:8.82157
-1.700000e-01 1:7.94952 2:10.33742 3:8.09921 4:8.81013 5:8.96808
-1.700000e-01 1:8.22432 2:10.09986 3:7.81819 4:8.69149 5:9.23148
-1.700000e-01 1:8.47678 2:9.93666 3:7.40090 4:8.33410 5:8.13194
-1.700000e-01 1:8.35423 2:10.26963 3:6.72503 4:7.13141 5:7.20582
-1.700000e-01 1:8.20220 2:9.79201 3:8.50278 4:9.04132 5:9.12347
-1.700000e-01 1:8.33860 2:10.00833 3:7.58620 4:8.46099 5:8.25351
-1.700000e-01 1:8.38473 2:9.85392 3:8.02023 4:8.72625 5:9.34100
-1.700000e-01 1:8.40590 2:10.55788 3:7.99265 4:8.85418 5:7.98557
-1.700000e-01 1:8.37631 2:10.32964 3:8.05438 4:8.61198 5:8.81479
-1.700000e-01 1:8.34982 2:10.33445 3:7.67489 4:8.61198 5:8.59360
-1.700000e-01 1:8.28051 2:10.37972 3:7.99654 4:8.54037 5:8.19056
-1.700000e-01 1:8.28564 2:10.17916 3:8.25387 4:8.66899 5:8.83985
-1.700000e-01 1:8.29441 2:10.14260 3:8.39531 4:8.72455 5:9.11204
-1.700000e-01 1:8.22538 2:10.18549 3:7.75630 4:8.35238 5:8.18699
-1.700000e-01 1:8.27295 2:10.30216 3:7.91000 4:8.40798 5:8.69566
-1.700000e-01 1:8.41870 2:10.20046 3:8.22882 4:8.62712 5:8.57139
-1.700000e-01 1:8.29173 2:10.49394 3:8.28732 4:8.57677 5:8.40149
-1.700000e-01 1:8.38339 2:9.81371 3:7.71690 4:8.82417 5:8.48868
-1.700000e-01 1:8.35305 2:10.05827 3:7.84901 4:8.07489 5:8.39916
-1.700000e-01 1:8.35751 2:9.85446 3:7.94894 4:8.85856 5:8.73640
-1.700000e-01 1:8.39885 2:10.07340 3:7.37389 4:7.88530 5:8.17485
-1.700000e-01 1:8.33661 2:10.44161 3:7.75605 4:8.47254 5:8.45001
-1.700000e-01 1:8.21540 2:10.22578 3:7.77811 4:8.39460 5:8.86379
-1.700000e-01 1:7.95718 2:9.42976 3:7.63658 4:7.97303 5:8.28018
-1.700000e-01 1:8.22072 2:9.91684 3:7.53879 4:7.98762 5:8.23275
-1.700000e-01 1:8.31651 2:10.17864 3:7.81979 4:8.26606 5:8.82691
-1.700000e-01 1:8.42086 2:10.86260 3:7.80057 4:8.20682 5:7.93294
-1.700000e-01 1:8.31857 2:10.27277 3:7.74254 4:8.29061 5:8.62055
-1.700000e-01 1:8.32821 2:10.58345 3:7.61921 4:8.34901 5:8.50892
-1.700000e-01 1:8.37313 2:9.97906 3:7.57536 4:8.48843 5:8.54412
-1.700000e-01 1:8.23758 2:9.79236 3:7.38397 4:7.82326 5:8.15566
-1.700000e-01 1:8.33094 2:10.02493 3:7.61354 4:7.90478 5:8.22980
-1.700000e-01 1:8.42276 2:10.19432 3:7.39793 4:7.93749 5:8.10153
-1.700000e-01 1:8.37055 2:10.12243 3:7.51424 4:8.10874 5:8.28669
-1.700000e-01 1:8.30014 2:11.69208 3:9.39367 4:10.52641 5:11.06667
-8.219230e-02 1:8.28227 2:11.63889 3:9.67618 4:10.03038 5:10.78045
-1.700000e-01 1:8.48735 2:11.50086 3:8.11034 4:9.18698 5:9.83994
-2.045413e-02 1:8.49666 2:11.55981 3:8.43754 4:9.27054 5:9.88629
-1.700000e-01 1:8.43198 2:11.34260 3:7.79418 4:9.29839 5:10.06022
-1.700000e-01 1:8.23140 2:11.76537 3:8.80946 4:9.94481 5:9.70839
-1.389797e-01 1:8.40652 2:11.40601 3:8.25125 4:9.24123 5:10.47510
-1.700000e-01 1:8.27141 2:11.76439 3:8.64812 4:9.95722 5:9.76073
-1.700000e-01 1:8.35309 2:11.73930 3:9.13728 4:10.62899 5:10.55322
-1.700000e-01 1:8.37505 2:11.65165 3:9.12387 4:10.68641 5:10.68541
-1.700000e-01 1:8.39068 2:11.68822 3:8.46633 4:9.41053 5:10.65675
-1.700000e-01 1:8.40346 2:11.65415 3:8.81684 4:9.60164 5:10.93389
-1.700000e-01 1:8.38732 2:11.70713 3:8.30939 4:9.36474 5:10.67042
-1.700000e-01 1:8.11908 2:10.29968 3:7.35135 4:8.38555 5:9.31629
-1.700000e-01 1:7.91240 2:11.66650 3:8.12406 4:8.88592 5:8.78848
-1.700000e-01 1:8.27496 2:11.69087 3:8.67564 4:9.58193 5:9.80263
-1.700000e-01 1:8.24817 2:11.68458 3:9.14073 4:9.56503 5:9.65205
-1.700000e-01 1:8.36188 2:11.77788 3:9.38490 4:10.68856 5:10.88276
-1.700000e-01 1:8.39454 2:11.57995 3:8.37589 4:9.96227 5:10.63571
-1.700000e-01 1:8.40182 2:11.51998 3:8.47750 4:9.55257 5:10.85387
-1.700000e-01 1:8.39405 2:11.49742 3:8.80108 4:10.49041 5:10.88663
-1.700000e-01 1:8.32363 2:11.65691 3:9.05903 4:10.45424 5:11.03318
-1.700000e-01 1:8.36695 2:11.65792 3:9.63008 4:10.60434 5:10.63251
-1.700000e-01 1:8.41781 2:11.86919 3:9.48624 4:10.38986 5:10.63893
-1.700000e-01 1:8.39369 2:11.57356 3:9.43276 4:10.58180 5:10.83087
-1.700000e-01 1:8.41534 2:11.69148 3:9.70882 4:10.26230 5:10.54693
-1.097626e-01 1:7.92024 2:10.83962 3:8.73044 4:8.82286 5:10.27274
-1.693981e-01 1:8.01665 2:11.33986 3:9.48040 4:9.49436 5:9.92400
-1.700000e-01 1:8.29735 2:11.09871 3:8.60331 4:9.09410 5:9.30883
-1.700000e-01 1:8.20619 2:10.42935 3:7.79177 4:8.31105 5:7.90730
-1.700000e-01 1:8.20466 2:10.21255 3:8.45126 4:9.02612 5:9.27439
-1.700000e-01 1:8.09472 2:10.16392 3:8.62246 4:8.92226 5:9.40779
-1.195752e-01 1:8.19516 2:10.37466 3:8.22037 4:9.12160 5:9.45141
-1.700000e-01 1:8.24236 2:10.22372 3:8.08513 4:8.84720 5:9.56303
-1.700000e-01 1:8.29869 2:9.99333 3:8.40249 4:8.63107 5:8.53705
-1.700000e-01 1:8.09883 2:10.86854 3:8.11538 4:8.97125 5:8.22358
-1.700000e-01 1:8.18298 2:10.59159 3:8.26456 4:8.77428 5:9.35815
-1.700000e-01 1:8.34662 2:10.42507 3:8.91068 4:8.92609 5:9.34259
-1.700000e-01 1:8.33198 2:10.30663 3:8.35782 4:8.67450 5:9.18980
-1.700000e-01 1:8.23441 2:10.34497 3:8.22055 4:8.74130 5:9.15908
-1.700000e-01 1:8.19356 2:10.46324 3:8.40073 4:9.02595 5:9.21345
-1.700000e-01 1:8.20055 2:10.26307 3:7.86966 4:8.28267 5:8.86861
-1.700000e-01 1:8.20692 2:10.32637 3:7.93626 4:8.30264 5:8.46472
-1.700000e-01 1:8.24374 2:10.27957 3:7.99716 4:8.51508 5:8.85601
-1.700000e-01 1:8.34070 2:10.36499 3:7.90104 4:8.99747 5:9.33756
-1.700000e-01 1:8.20166 2:10.32324 3:8.26872 4:8.80121 5:8.19243
-1.700000e-01 1:8.14357 2:10.28323 3:8.55440 4:9.07124 5:9.09524
-1.700000e-01 1:8.12416 2:10.13424 3:8.67336 4:8.92780 5:9.18125
-1.700000e-01 1:8.21434 2:10.39240 3:8.48991 4:9.15192 5:9.22099
-1.700000e-01 1:8.20122 2:10.31687 3:8.32724 4:8.96881 5:9.41500
-1.700000e-01 1:8.16296 2:10.43959 3:8.46642 4:8.73238 5:9.31298
-1.700000e-01 1:8.26823 2:10.41936 3:8.18674 4:8.82578 5:9.46074
-1.700000e-01 1:8.34860 2:10.24850 3:8.05702 4:8.64234 5:9.29766
-1.700000e-01 1:8.25611 2:10.00232 3:7.89776 4:8.43996 5:8.34485
-1.700000e-01 1:8.15183 2:10.10630 3:7.61304 4:7.78141 5:8.09891
-1.700000e-01 1:8.13796 2:10.21265 3:8.38134 4:8.61036 5:8.58082
-1.700000e-01 1:8.09327 2:10.31985 3:8.10424 4:9.20343 5:9.15179
-1.700000e-01 1:8.18788 2:10.35136 3:7.96878 4:8.78569 5:9.42476
-1.700000e-01 1:8.24693 2:10.54988 3:7.98572 4:8.31668 5:9.26859
-1.700000e-01 1:8.26551 2:10.54844 3:7.96881 4:8.47147 5:8.82076
-1.700000e-01 1:8.24610 2:10.59080 3:7.73039 4:8.80114 5:9.09119
-1.700000e-01 1:8.29966 2:10.18694 3:7.63064 4:8.79414 5:9.08501
-1.700000e-01 1:8.32602 2:10.20990 3:7.91578 4:8.83057 5:8.83142
-1.700000e-01 1:8.22656 2:10.00258 3:7.83820 4:8.66551 5:8.94110
-1.700000e-01 1:8.10871 2:10.10667 3:7.67419 4:8.09163 5:8.90894
-1.700000e-01 1:8.13839 2:10.52201 3:8.41043 4:9.01027 5:9.26086
-1.700000e-01 1:8.12261 2:10.37882 3:8.33987 4:9.26020 5:9.08806
-1.700000e-01 1:8.09603 2:10.67684 3:9.07195 4:9.58625 5:9.05159
-1.700000e-01 1:8.25337 2:10.99349 3:8.80656 4:9.30779 5:9.13956
-1.700000e-01 1:8.31302 2:10.80314 3:8.92257 4:9.21213 5:9.13529
-1.700000e-01 1:8.31941 2:10.57335 3:8.68751 4:8.94648 5:9.19333
-1.700000e-01 1:8.35494 2:10.89102 3:8.44714 4:9.19896 5:9.24897
-1.700000e-01 1:8.22855 2:10.35855 3:8.67060 4:8.97175 5:9.13923
-1.700000e-01 1:8.14183 2:10.82863 3:9.74412 4:9.78055 5:9.59906
-1.700000e-01 1:8.22564 2:11.05231 3:9.28871 4:9.93345 5:9.41033
-1.700000e-01 1:8.14430 2:10.64130 3:9.17509 4:9.39320 5:9.20727
-1.700000e-01 1:8.15258 2:11.02120 3:9.63258 4:9.49966 5:9.39095
-1.700000e-01 1:8.14772 2:9.88899 3:8.11598 4:8.40462 5:8.81388
-1.700000e-01 1:8.14328 2:9.97626 3:7.68109 4:8.20904 5:8.44353
-1.700000e-01 1:8.17686 2:9.69033 3:7.72446 4:8.44915 5:8.99607
-1.700000e-01 1:8.05487 2:10.52367 3:7.34671 4:8.23181 5:8.47330
-1.700000e-01 1:8.22666 2:10.69026 3:8.09937 4:8.60337 5:9.12842
-1.700000e-01 1:8.34105 2:10.84061 3:8.18318 4:8.15289 5:9.06517
-1.700000e-01 1:8.31300 2:10.91877 3:8.10971 4:8.64397 5:9.25758
-1.700000e-01 1:8.32543 2:10.89322 3:8.24547 4:8.73464 5:9.50775
-1.700000e-01 1:8.35066 2:11.00371 3:8.27221 4:9.43554 5:9.13923
-1.700000e-01 1:7.95372 2:10.71844 3:9.24253 4:9.45594 5:9.16361
-1.700000e-01 1:8.24422 2:10.93741 3:9.50985 4:9.76974 5:9.55304
-1.700000e-01 1:8.19535 2:10.46291 3:9.04175 4:8.99548 5:9.03381
-1.700000e-01 1:8.31601 2:10.50519 3:8.27743 4:8.99917 5:9.36117
-1.700000e-01 1:8.25137 2:9.99590 3:8.77704 4:9.16854 5:9.09949
-1.700000e-01 1:8.21761 2:10.81695 3:8.06813 4:8.86522 5:8.72448
-1.700000e-01 1:8.07357 2:9.84560 3:8.75420 4:8.86175 5:9.45169
-1.700000e-01 1:7.97459 2:10.79504 3:8.34998 4:8.74709 5:8.55516
-1.700000e-01 1:8.10381 2:11.17985 3:9.59226 4:9.55539 5:9.31647
-1.700000e-01 1:8.28191 2:9.80380 3:8.04801 4:8.64905 5:8.95386
-1.700000e-01 1:8.31041 2:10.31712 3:8.68295 4:8.54397 5:9.04110
-1.700000e-01 1:8.16466 2:9.69267 3:8.07075 4:8.19054 5:8.39739
-1.700000e-01 1:8.24635 2:11.30517 3:9.81295 4:10.06870 5:9.71707
-1.700000e-01 1:8.24239 2:11.29384 3:10.08007 4:10.21033 5:9.78778
-1.700000e-01 1:8.17459 2:11.12225 3:9.92103 4:10.30618 5:9.90838
-1.700000e-01 1:8.18467 2:11.24245 3:9.48063 4:10.11415 5:9.66670
-1.700000e-01 1:8.19474 2:11.16664 3:9.35102 4:9.91025 5:9.23597
-1.700000e-01 1:8.18911 2:11.00704 3:9.64807 4:10.16245 5:9.73111
-1.700000e-01 1:8.28725 2:11.07288 3:9.50887 4:9.34679 5:9.63871
-1.700000e-01 1:8.23338 2:11.00215 3:9.73962 4:9.89726 5:9.93662
-1.700000e-01 1:8.13592 2:11.32577 3:10.08443 4:9.81364 5:10.06275
-1.700000e-01 1:8.11690 2:11.00882 3:9.54746 4:9.88658 5:9.65652
-1.700000e-01 1:8.18375 2:10.75671 3:8.17233 4:8.73008 5:9.87006
-1.700000e-01 1:8.15653 2:11.10219 3:9.70733 4:10.09350 5:9.87361
-1.655583e-01 1:8.00810 2:11.18461 3:9.66653 4:10.24226 5:10.18550
-1.700000e-01 1:8.27246 2:11.25495 3:8.43421 4:9.28808 5:9.11808
-1.700000e-01 1:8.19738 2:11.05421 3:8.48695 4:8.75601 5:9.10740
-8.838921e-02 1:8.23559 2:10.46622 3:9.22734 4:10.08539 5:10.25658
-1.700000e-01 1:8.29582 2:10.72393 3:8.37069 4:9.26588 5:9.07475
-1.700000e-01 1:8.32703 2:10.53846 3:7.53280 4:8.41367 5:9.21950
-1.700000e-01 1:8.23173 2:11.22636 3:8.33392 4:9.22266 5:8.90246
-1.700000e-01 1:8.30327 2:10.70126 3:8.07849 4:9.21701 5:9.35242
-1.700000e-01 1:8.31649 2:11.12825 3:9.37189 4:9.42590 5:9.25606
-1.700000e-01 1:8.30217 2:11.34489 3:9.41093 4:9.56306 5:9.49936
-1.700000e-01 1:8.31490 2:10.96781 3:9.49054 4:9.77928 5:9.51271
-1.700000e-01 1:8.24681 2:10.94795 3:8.90352 4:9.31728 5:9.19483
-1.700000e-01 1:8.20218 2:10.70105 3:9.32699 4:9.18555 5:9.06337
-1.700000e-01 1:8.24506 2:10.59042 3:7.99114 4:8.59146 5:9.12791
-1.700000e-01 1:8.14357 2:11.11539 3:8.65655 4:8.92152 5:9.30932
-1.700000e-01 1:8.37642 2:10.85204 3:8.85406 4:9.01701 5:9.08111
-1.700000e-01 1:8.18624 2:10.83382 3:8.23369 4:9.03480 5:8.94636
