svm_type c_svc
kernel_type rbf
gamma 2.0000
nr_class 2
total_sv 596
rho 0.6000
label 1 0
nr_sv 247 349
SV
8.511319e-01 1:8.28519 2:9.64149 3:9.31368 4:10.36034
1.037192e+01 1:0.48445 2:8.24487 3:9.65737 4:9.39406
1.055125e+01 1:10.45287 2:0.14597 3:8.16167 4:9.54178
9.230079e+00 1:10.26953 2:10.43294 3:2.00000 4:8.28045
9.618811e+00 1:9.40403 2:9.77242 3:9.79509 4:0.81397
8.132980e+00 1:8.51829 2:9.85662 3:10.04693 4:9.95400
7.491220e-01 1:8.13292 2:9.58839 3:9.74340 4:10.02600
1.038044e+01 1:0.87575 2:8.14695 3:9.50819 4:9.29729
9.620617e+00 1:9.87255 2:0.11199 3:8.15294 4:9.62109
9.656197e+00 1:10.22063 2:10.07787 3:2.00000 4:8.00710
8.540151e+00 1:9.57125 2:10.28349 3:10.25600 4:2.00000
7.976897e+00 1:8.40338 2:9.85735 3:10.31258 4:10.31289
2 1:8.33264 2:8.31106 3:9.49618 4:9.64626
1.038784e+01 1:1.93064 2:8.31645 3:8.23749 4:8.98779
9.717449e+00 1:9.66215 2:0.97285 3:8.33589 4:8.36769
9.276768e+00 1:9.87907 2:10.41629 3:2.00000 4:8.34367
8.026491e+00 1:8.98246 2:9.13574 3:9.83264 4:2.00000
8.252816e+00 1:7.55002 2:8.58362 3:9.35608 4:9.93649
2 1:8.18408 2:7.97628 3:8.56437 4:9.51735
9.661481e+00 1:2.00000 2:8.23290 3:7.87938 4:8.43612
9.358856e+00 1:9.73154 2:2.00000 3:8.19823 4:7.34700
8.199996e+00 1:8.98342 2:9.51300 3:0.03453 4:8.18449
9.257150e+00 1:10.22358 2:9.55666 3:10.08687 4:2.00000
8.069954e+00 1:9.81295 2:10.10376 3:10.07334 4:10.15734
1.212564e+00 1:7.95295 2:8.92623 3:10.01585 4:9.97997
1.022146e+01 1:2.00000 2:7.92695 3:8.90358 4:9.98367
1.003569e+01 1:10.25155 2:0.19474 3:8.18397 4:8.39978
9.388805e+00 1:9.83976 2:10.40050 3:2.00000 4:8.37956
8.235152e+00 1:8.82882 2:9.76838 3:9.86375 4:2.00000
8.396679e+00 1:7.71898 2:8.55058 3:9.42451 4:10.12777
2 1:8.17409 2:7.59234 3:8.24039 4:9.02311
9.584314e+00 1:2.00000 2:8.11398 3:7.72575 4:8.69139
9.372772e+00 1:9.62436 2:1.06813 3:8.24423 4:7.98749
8.789478e+00 1:9.46990 2:10.32422 3:2.00000 4:8.14287
7.928070e+00 1:8.70073 2:9.30289 3:9.67449 4:2.00000
8.053024e+00 1:7.80136 2:8.79430 3:9.22312 4:9.67646
2 1:8.15013 2:7.79967 3:8.77939 4:9.44867
9.983085e+00 1:2.00000 2:8.06003 3:8.80392 4:9.83688
1.020475e+01 1:10.66169 2:0.30768 3:8.35701 4:8.46321
9.330166e+00 1:9.69024 2:10.20258 3:0.88409 4:8.34655
9.336398e+00 1:9.52556 2:9.69489 3:10.23659 4:2.00000
8.349969e+00 1:8.67325 2:9.04409 3:9.42055 4:9.73092
2 1:8.30282 2:8.27180 3:9.26762 4:9.69740
1.034049e+01 1:2.00000 2:8.17967 3:7.87240 4:8.81908
9.331312e+00 1:9.82807 2:2.00000 3:8.18049 4:7.63901
8.480636e+00 1:9.02614 2:9.79918 3:2.00000 4:8.34759
9.657991e+00 1:9.85026 2:9.84885 3:10.29181 4:0.03988
8.243899e+00 1:10.19541 2:10.26788 3:10.30376 4:10.09411
2 1:8.31684 2:10.01462 3:10.14960 4:10.27524
9.844007e+00 1:0.00140 2:8.34162 3:8.87373 4:10.38511
1.156636e+01 1:11.15276 2:0.00187 3:8.39571 4:8.96020
9.665816e+00 1:11.04761 2:11.04725 3:0.01505 4:8.26748
8.861566e+00 1:10.34169 2:11.03818 3:11.16228 4:2.00000
8.119083e+00 1:7.52723 2:8.05281 3:9.17939 4:10.14125
2 1:7.91240 2:8.00195 3:8.92312 4:9.62254
1.007866e+01 1:0.89657 2:8.24817 3:8.47408 4:9.44711
1.065031e+01 1:10.46122 2:0.00568 3:8.37340 4:8.43892
9.844061e+00 1:11.38363 2:10.76182 3:0.00958 4:8.39500
8.337856e+00 1:9.97474 2:10.44702 3:11.27220 4:1.17699
8.291042e+00 1:8.12895 2:9.08257 3:10.22148 4:10.01249
2 1:8.26074 2:8.79379 3:9.90379 4:9.53850
9.107985e+00 1:0.38712 2:8.06641 3:8.97163 4:9.94274
9.821995e+00 1:9.14378 2:1.45425 3:8.18007 4:8.57946
9.605899e+00 1:9.61946 2:9.08428 3:2.00000 4:8.21381
8.901246e+00 1:9.47656 2:9.55238 3:9.13710 4:2.00000
8.213944e+00 1:8.33299 2:9.12398 3:9.38776 4:9.26207
1.661497e+00 1:8.12651 2:8.78834 3:9.55202 4:9.69779
9.211816e+00 1:2.00000 2:8.03696 3:8.48120 4:9.38719
9.843951e+00 1:9.50163 2:1.41576 3:8.06801 4:8.80425
9.736798e+00 1:9.74582 2:9.47130 3:2.00000 4:8.06783
8.335849e+00 1:9.24712 2:9.32626 3:9.16690 4:2.00000
7.838917e+00 1:8.73764 2:9.77248 3:10.02241 4:9.28361
2.034741e-02 1:8.15291 2:8.49003 3:9.39125 4:9.59284
9.556623e+00 1:2.00000 2:8.19424 3:8.01968 4:8.98506
9.576493e+00 1:9.12914 2:2.00000 3:8.33163 4:8.87053
1.002085e+01 1:10.71842 2:10.58414 3:2.00000 4:8.20428
7.909161e+00 1:8.85562 2:9.75133 3:10.23330 4:2.00000
8.315553e+00 1:8.44444 2:9.18940 3:9.24089 4:9.66061
5.570304e-01 1:8.05049 2:8.42759 3:9.73113 4:10.15296
9.663454e+00 1:2.00000 2:8.10062 3:7.95960 4:8.96980
9.463426e+00 1:9.59481 2:2.00000 3:7.87850 4:8.93605
9.596808e+00 1:10.19508 2:10.10582 3:2.00000 4:8.07231
8.779609e+00 1:9.44392 2:9.75698 3:9.99221 4:2.00000
8.090790e+00 1:7.29737 2:7.76883 3:7.81542 4:9.46522
2 1:8.11004 2:8.59504 3:9.30525 4:9.86036
1.032812e+01 1:0.76356 2:7.86497 3:9.02409 4:10.54140
1.101972e+01 1:10.79078 2:0.99628 3:7.99552 4:8.95150
1.027996e+01 1:10.84619 2:9.97909 3:0.86174 4:7.79457
9.034175e+00 1:9.90459 2:10.44152 3:10.46182 4:1.94162
7.443645e+00 1:9.02543 2:9.88549 3:10.61704 4:10.60460
1.570285e-01 1:7.58131 2:8.91308 3:9.65171 4:10.54930
1.077258e+01 1:1.23820 2:7.90695 3:10.28141 4:10.60130
1.085776e+01 1:10.64115 2:0.33517 3:7.71771 4:9.79997
1.017996e+01 1:11.02435 2:10.91406 3:0.01443 4:7.65074
9.088439e+00 1:10.14305 2:11.00432 3:11.00734 4:0.61584
7.873029e+00 1:9.04281 2:10.21076 3:11.19860 4:10.76437
2 1:7.60888 2:8.60148 3:9.73377 4:10.54515
1.094693e+01 1:0.17396 2:8.17257 3:9.00696 4:10.28253
1.106481e+01 1:10.31994 2:2.00000 3:8.22578 4:8.05753
8.916410e+00 1:10.02736 2:10.09276 3:2.00000 4:8.14611
8.184132e+00 1:9.08500 2:9.80996 3:9.61400 4:1.48828
8.162718e+00 1:7.88280 2:9.17113 3:9.90155 4:9.93077
2 1:8.12578 2:7.77272 3:8.93047 4:9.95564
1.015536e+01 1:2.00000 2:8.18034 3:7.76614 4:9.15131
9.923191e+00 1:10.05179 2:2.00000 3:8.09041 4:8.44892
8.995260e+00 1:9.96779 2:9.87078 3:0.91360 4:8.14526
8.734894e+00 1:9.26030 2:9.61904 3:9.70946 4:2.00000
8.217394e+00 1:8.82976 2:9.26682 3:9.44184 4:9.61095
2 1:8.13804 2:8.56387 3:9.37221 4:9.58982
9.949948e+00 1:2.00000 2:8.26969 3:8.05170 4:8.31930
9.114139e+00 1:9.83703 2:2.00000 3:8.33741 4:8.20279
8.105868e+00 1:8.62518 2:8.93137 3:2.00000 4:8.04216
8.286051e+00 1:9.11958 2:10.00715 3:10.06520 4:2.00000
8.058028e+00 1:8.29651 2:9.03252 3:9.77988 4:9.68834
2 1:8.14142 2:8.52719 3:9.11202 4:9.51702
9.591046e+00 1:2.00000 2:8.12673 3:8.31163 4:8.93837
9.678287e+00 1:9.80663 2:2.00000 3:8.10806 4:8.24428
8.982018e+00 1:9.33053 2:9.77335 3:0.53831 4:8.19106
8.280780e+00 1:8.90077 2:9.72186 3:9.94664 4:1.70992
8.175377e+00 1:8.32844 2:8.85859 3:9.50570 4:10.15358
2 1:8.12967 2:8.30110 3:8.69162 4:9.54530
9.987683e+00 1:2.00000 2:8.00386 3:8.60302 4:9.30425
1.006281e+01 1:10.19042 2:2.00000 3:7.94607 4:8.43865
8.974384e+00 1:9.84083 2:9.99145 3:2.00000 4:8.00698
8.471549e+00 1:9.08270 2:9.83029 3:10.04416 4:1.05334
8.193518e+00 1:8.28922 2:8.95198 3:9.89202 4:9.95454
2 1:8.15696 2:8.22953 3:8.97940 4:9.71430
9.765605e+00 1:2.00000 2:8.20548 3:7.66779 4:8.59526
9.353275e+00 1:9.46849 2:2.00000 3:8.27715 4:7.38212
8.413373e+00 1:8.68822 2:9.21295 3:1.46961 4:8.17199
7.933145e+00 1:8.98662 2:9.44433 3:9.58154 4:2.00000
8.215322e+00 1:8.13963 2:8.82739 3:9.04732 4:9.72166
2 1:8.16664 2:7.99175 3:8.80496 4:9.60476
9.954667e+00 1:2.00000 2:8.02978 3:8.41650 4:9.29764
9.564245e+00 1:9.89971 2:2.00000 3:8.07283 4:8.67873
9.825642e+00 1:9.56192 2:10.12924 3:2.00000 4:8.14119
8.436580e+00 1:9.04332 2:9.42798 3:9.79143 4:2.00000
8.263462e+00 1:8.07555 2:8.56704 3:9.10845 4:9.39866
2 1:8.12346 2:7.95920 3:8.64873 4:9.23991
9.064402e+00 1:2.00000 2:8.02859 3:8.08336 4:8.46824
8.758956e+00 1:8.69088 2:2.00000 3:8.27313 4:7.91991
8.596895e+00 1:8.92904 2:8.78386 3:2.00000 4:8.18288
8.051807e+00 1:8.47186 2:8.90902 3:8.89546 4:2.00000
8.343507e+00 1:8.02184 2:8.20594 3:8.77371 4:8.80158
2 1:8.27911 2:7.91313 3:8.17964 4:8.52464
8.986538e+00 1:2.00000 2:8.28832 3:8.05118 4:8.79263
8.955751e+00 1:9.18876 2:2.00000 3:8.16674 4:8.02713
8.578945e+00 1:8.73786 2:9.26381 3:2.00000 4:8.27975
7.976047e+00 1:8.97156 2:9.51376 3:9.24668 4:2.00000
8.107806e+00 1:8.01312 2:8.91043 3:9.36900 4:9.42801
2 1:7.94952 2:8.08663 3:9.07377 4:9.34109
9.482749e+00 1:2.00000 2:8.22432 3:7.71493 4:8.79427
9.052147e+00 1:9.18740 2:2.00000 3:8.47678 4:7.02710
7.950592e+00 1:8.06896 2:8.76758 3:2.00000 4:8.35423
7.338093e+00 1:8.22157 2:8.57266 3:9.16842 4:2.00000
8.202197e+00 1:7.99666 2:8.56639 3:9.47851 4:9.74065
2 1:8.33860 2:7.61279 3:8.39330 4:8.72799
8.989183e+00 1:2.00000 2:8.40590 3:7.97717 4:8.69544
8.955976e+00 1:8.95942 2:2.00000 3:8.37631 4:8.00869
8.828686e+00 1:9.10512 2:8.99399 3:2.00000 4:8.34982
7.826504e+00 1:8.34815 2:8.73991 3:8.99617 4:2.00000
8.280512e+00 1:8.05512 2:8.62522 3:9.03416 4:8.78083
2 1:8.28564 2:8.11345 3:8.71780 4:8.98006
8.988633e+00 1:1.24416 2:8.29441 3:8.25855 4:9.12968
9.278841e+00 1:9.37703 2:2.00000 3:8.22538 4:8.01456
8.560762e+00 1:9.09811 2:9.24659 3:2.00000 4:8.27295
8.075359e+00 1:8.55854 2:9.14824 3:9.48108 4:2.00000
8.418697e+00 1:8.03601 2:8.73903 3:8.87802 4:9.73652
2 1:8.29173 2:8.09164 3:8.80266 4:9.16610
9.238197e+00 1:2.00000 2:8.38339 3:7.61149 4:8.40826
8.787169e+00 1:8.77589 2:2.00000 3:8.35305 4:7.66979
8.531938e+00 1:8.67634 2:9.02840 3:2.00000 4:8.35751
7.700879e+00 1:8.61762 2:8.74046 3:9.19031 4:2.00000
8.398851e+00 1:7.60911 2:8.22155 3:8.59306 4:8.62783
2 1:8.33661 2:7.83486 3:8.67387 4:9.15469
8.862402e+00 1:2.00000 2:8.21540 3:7.82556 4:8.73185
9.236960e+00 1:9.17388 2:2.00000 3:7.95718 4:7.76024
8.398518e+00 1:8.82364 2:8.82249 3:2.00000 4:8.22072
7.944424e+00 1:8.47516 2:8.95969 3:8.93454 4:2.00000
8.316506e+00 1:7.93059 2:8.44045 3:8.79803 4:8.79286
2 1:8.42086 2:7.82866 3:8.49593 4:8.77539
9.132732e+00 1:2.00000 2:8.31857 3:7.84720 4:8.64808
9.017513e+00 1:9.37888 2:2.00000 3:8.32821 4:7.80299
8.510870e+00 1:8.97128 2:9.14000 3:2.00000 4:8.37313
7.702709e+00 1:8.35527 2:8.70111 3:9.14866 4:2.00000
8.237582e+00 1:7.73521 2:8.49042 3:8.67766 4:8.73721
2 1:8.33094 2:7.65256 3:8.35096 4:8.65888
8.950068e+00 1:2.00000 2:8.42276 3:7.49852 4:7.94972
8.306429e+00 1:8.99300 2:2.00000 3:8.37055 4:7.45897
8.164181e+00 1:8.51621 2:8.44966 3:0.62798 4:8.30014
8.950222e+00 1:10.47229 2:11.37948 3:11.43932 4:2.00000
8.282269e+00 1:9.02558 2:10.46140 3:10.97220 4:11.44316
7.694275e-01 1:8.39396 2:8.18279 3:9.44827 4:10.82022
1.089482e+01 1:1.68366 2:8.44146 3:8.03862 4:9.40854
1.033367e+01 1:10.76989 2:1.27301 3:8.48735 4:8.15139
8.947517e+00 1:10.01099 2:10.73186 3:1.51408 4:8.49197
7.959114e+00 1:8.68456 2:10.21269 3:10.70442 4:2.00000
8.435058e+00 1:8.08293 2:9.27321 3:10.77397 4:10.96683
7.719694e-01 1:8.43488 2:8.15778 3:9.38029 4:10.50017
1.090590e+01 1:1.15528 2:8.43668 3:7.92829 4:9.35201
1.058699e+01 1:10.90299 2:2.00000 3:8.41399 4:8.10720
9.307284e+00 1:10.82219 2:11.02743 3:1.05564 4:8.27141
8.856528e+00 1:10.23795 2:11.15415 3:10.78848 4:0.50576
8.341619e+00 1:8.87373 2:10.38511 3:11.56636 4:11.15276
4.845163e-01 1:8.35634 2:8.85200 3:10.61429 4:11.22006
1.127258e+01 1:1.43302 2:8.39571 3:8.96020 4:9.66582
1.104761e+01 1:11.04725 2:0.02617 3:8.26748 4:8.86157
1.034169e+01 1:11.03818 2:11.16228 3:2.00000 4:8.11908
7.527226e+00 1:8.05281 2:9.17939 3:10.14125 4:2.00000
7.912401e+00 1:8.00195 2:8.92312 3:9.62254 4:10.07866
2 1:8.24817 2:8.47408 3:9.44711 4:10.65031
1.046122e+01 1:1.06363 2:8.37340 3:8.43892 4:9.84406
1.138363e+01 1:10.76182 2:0.36221 3:8.36534 4:8.46007
9.804064e+00 1:10.34406 2:11.26239 3:0.40447 4:8.39500
8.337856e+00 1:9.97474 2:10.44702 3:11.27220 4:0.82185
8.292823e+00 1:8.77800 2:10.28262 3:11.16051 4:11.51995
8.316731e-01 1:8.38497 2:9.74209 3:10.02330 4:11.28727
1.120403e+01 1:0.53876 2:8.38969 3:9.53123 4:10.09845
1.098289e+01 1:11.39182 2:1.47600 3:7.92024 4:8.66230
9.151934e+00 1:10.38989 2:10.76237 3:0.78078 4:8.25543
9.034049e+00 1:9.78150 2:10.66483 3:10.37945 4:0.76552
8.238789e+00 1:8.87843 2:9.56183 3:10.52151 4:10.69518
2 1:8.38309 2:7.74497 3:8.60690 4:9.59599
1.015694e+01 1:2.00000 2:7.96322 3:8.41905 4:9.83557
1.056551e+01 1:10.64387 2:2.00000 3:7.91077 4:8.31783
9.632954e+00 1:10.43683 2:10.52278 3:2.00000 4:7.77926
8.569322e+00 1:9.79116 2:10.79822 3:10.47794 4:2.00000
7.685454e+00 1:8.43105 2:9.56315 3:10.49931 4:10.09785
2 1:8.20619 2:8.02445 3:9.14698 4:9.02989
8.988662e+00 1:2.00000 2:8.24236 3:8.01732 4:8.88822
9.673850e+00 1:9.99583 2:2.00000 3:8.29869 4:8.36937
8.562424e+00 1:8.98355 2:8.81494 3:2.00000 4:8.09883
8.386692e+00 1:9.11549 2:9.89015 3:9.71725 4:2.00000
8.019981e+00 1:8.52864 2:9.43457 3:10.10703 4:10.01160
2 1:8.34662 2:8.88783 3:9.25037 4:9.44501
1.015382e+01 1:2.00000 2:8.33198 3:8.45206 4:8.78981
9.240972e+00 1:9.80914 2:2.00000 3:8.23441 4:8.49550
8.775405e+00 1:9.52296 2:9.99094 3:1.93680 4:8.19356
8.306621e+00 1:8.86107 2:9.52750 3:9.95617 4:2.00000
8.200551e+00 1:7.88814 2:8.51282 3:8.74278 4:9.46721
2 1:8.20692 2:7.87672 3:8.53177 4:9.02201
9.388307e+00 1:2.00000 2:8.24374 3:7.99562 4:8.72404
9.350196e+00 1:9.90205 2:2.00000 3:8.34860 4:8.33631
8.858935e+00 1:9.35356 2:9.50950 3:2.00000 4:8.25611
8.201280e+00 1:8.61632 2:8.69663 3:9.03560 4:2.00000
8.151833e+00 1:7.84675 2:8.40457 3:8.92189 4:9.10943
2 1:8.13796 2:7.96334 3:8.95183 4:9.18613
9.340863e+00 1:0.86795 2:8.09327 3:8.02913 4:9.19962
9.543203e+00 1:9.98710 2:2.00000 3:8.24693 4:8.15417
8.754572e+00 1:9.35216 2:9.91843 3:2.00000 4:8.26551
7.911240e+00 1:8.81687 2:9.32485 3:9.80233 4:2.00000
8.246104e+00 1:7.64088 2:8.85262 3:9.61353 4:10.10284
2 1:8.29966 2:7.74161 3:8.77368 4:9.51911
9.912297e+00 1:2.00000 2:8.32602 3:7.81330 4:8.71696
9.331352e+00 1:9.83782 2:2.00000 3:8.22656 4:7.79184
8.715985e+00 1:9.23051 2:9.62200 3:2.00000 4:8.10871
7.724794e+00 1:8.57624 2:9.15779 3:9.50206 4:2.00000
8.122606e+00 1:8.10914 2:8.94317 3:9.55747 4:9.45974
2 1:8.09603 2:9.21018 3:9.92342 4:9.50545
9.784744e+00 1:0.94575 2:8.34593 3:8.70707 4:9.29381
9.647913e+00 1:10.23509 2:2.00000 3:8.22855 4:8.65631
9.293482e+00 1:9.46532 2:9.51325 3:0.69759 4:8.15258
9.434147e+00 1:10.16079 2:10.52516 3:9.85883 4:2.00000
8.147722e+00 1:7.95847 2:8.48919 3:9.07873 4:9.18965
2 1:8.14328 2:7.76787 3:8.58577 4:9.02690
9.024611e+00 1:2.00000 2:8.17686 3:7.93380 4:8.57950
9.279486e+00 1:9.25906 2:2.00000 3:8.05487 4:7.94962
8.696671e+00 1:9.37506 2:9.79565 3:2.00000 4:8.22666
7.973444e+00 1:8.71689 2:9.33182 3:9.95443 4:2.00000
8.341054e+00 1:7.99238 2:8.71828 3:9.51282 4:10.27825
1.926008e+00 1:8.32543 2:8.22888 3:9.24760 4:9.74956
1.030230e+01 1:2.00000 2:7.95372 3:9.41917 4:9.87765
1.006966e+01 1:9.77484 2:0.01814 3:8.35681 4:9.22035
9.859546e+00 1:10.57480 2:10.50723 3:0.91360 4:8.21761
8.564145e+00 1:9.08683 2:9.48451 3:10.02981 4:2.00000
8.073570e+00 1:8.99934 2:9.00723 3:9.63578 4:9.66553
2 1:7.97459 2:9.07361 3:9.37242 4:9.69851
9.420067e+00 1:2.00000 2:8.28191 3:8.28494 4:8.69250
9.234400e+00 1:9.00240 2:2.00000 3:8.31041 4:8.65394
8.924468e+00 1:9.29050 2:9.41872 3:2.00000 4:8.16466
8.173970e+00 1:8.66869 2:9.10910 3:9.25469 4:0.85748
8.246348e+00 1:10.05572 2:10.36045 3:10.58806 4:9.87391
3.361493e-01 1:8.27452 2:9.11425 3:9.48587 4:10.33749
1.019608e+01 1:0.80977 2:8.12231 3:9.38594 4:10.48543
1.035510e+01 1:10.36758 2:0.26722 3:8.00810 4:9.58388
1.075243e+01 1:10.87374 2:10.62842 3:0.14665 4:8.06582
8.722465e+00 1:9.70591 2:10.14719 3:9.94502 4:2.00000
8.197376e+00 1:8.20743 2:8.58879 3:9.29777 4:9.50768
2 1:8.32703 2:7.84341 3:8.63680 4:9.38332
9.508002e+00 1:2.00000 2:8.23173 3:7.89916 4:8.65415
9.422157e+00 1:9.66125 2:2.00000 3:8.30327 4:7.98387
8.812380e+00 1:9.82564 2:9.88985 3:2.00000 4:8.24681
9.508912e+00 1:9.50807 2:9.50057 3:9.81733 4:2.00000
8.245057e+00 1:8.14530 2:8.73261 3:9.11854 4:9.57067
5.943291e-01 1:8.38660 2:9.08236 3:9.83035 4:10.29964
1.043618e+01 1:2.00000 2:8.31303 3:8.39323 4:9.67321
9.448762e+00 1:9.84234 2:-0.02745 3:7.56583 4:8.81047
9.385414e+00 1:8.32089 2:8.57432 3:-0.13219 4:8.16294
8.714920e+00 1:9.37010 2:9.15534 3:9.20628 4:-0.08477
8.088546e+00 1:8.35808 2:9.32164 3:8.81265 4:8.75818
-1.474979e-01 1:7.44187 2:9.29273 3:8.98912 4:8.25904
8.151920e+00 1:-0.00433 2:8.33565 3:9.61113 4:8.64935
8.222735e+00 1:7.71766 2:-2.00000 3:8.18579 4:9.49597
9.706595e+00 1:10.30747 2:10.14308 3:-0.07632 4:8.29955
8.321911e+00 1:9.55099 2:8.37001 3:8.46031 4:-0.73517
7.793571e+00 1:8.61276 2:9.95304 3:9.37239 4:9.66490
-1.004410e+00 1:7.55187 2:9.54542 3:9.69582 4:10.05521
9.235403e+00 1:-0.01234 2:8.38410 3:7.87134 4:9.28487
8.373933e+00 1:7.93736 2:-0.12384 3:8.28436 4:9.52058
8.574173e+00 1:8.75130 2:8.09080 3:-0.29695 4:8.14533
9.575898e+00 1:8.22551 2:8.46582 3:9.16968 4:-0.19632
8.151966e+00 1:9.57275 2:8.08879 3:7.97188 4:8.07372
-1.157003e-01 1:7.66302 2:9.57682 3:8.66809 4:8.46969
8.010526e+00 1:-0.05449 2:8.18235 3:10.99984 4:10.79055
9.704165e+00 1:8.71490 2:-0.05230 3:8.26688 4:9.54801
8.715513e+00 1:8.36244 2:7.64043 3:-0.20960 4:8.25137
8.379344e+00 1:9.30920 2:8.28842 3:7.61733 4:-0.00503
8.157109e+00 1:9.50467 2:8.65584 3:9.16211 4:8.73045
-1.419286e-02 1:8.06339 2:8.10749 3:9.22871 4:8.05738
8.163725e+00 1:-2.00000 2:8.40657 3:8.77931 4:9.33692
9.476452e+00 1:9.34868 2:-1.66372 3:8.12411 4:8.61452
9.475505e+00 1:8.86710 2:9.59044 3:-0.11747 4:8.49582
9.531613e+00 1:8.41886 2:7.89818 3:8.16562 4:-0.17876
8.181869e+00 1:9.35716 2:9.52585 3:8.79520 4:7.67855
-2.251546e-02 1:7.81904 2:8.44604 3:7.78683 4:7.64510
7.638797e+00 1:-0.06476 2:8.05116 3:8.30858 4:7.60093
7.350242e+00 1:7.75309 2:-0.35056 3:7.84281 4:11.26417
1.135042e+01 1:7.81122 2:7.48308 3:-0.34908 4:8.10686
1.101465e+01 1:11.08825 2:7.99214 3:8.34654 4:-0.34566
8.309541e+00 1:9.78813 2:9.68537 3:7.64306 4:7.97275
-1.163393e+00 1:8.26077 2:7.16951 3:8.28431 4:8.89795
9.306977e+00 1:-0.40966 2:8.33064 3:7.29369 4:8.41119
8.965035e+00 1:9.17760 2:-0.15232 3:8.23293 4:10.06267
9.904240e+00 1:9.23704 2:7.97924 3:-2.00000 4:8.25830
9.507095e+00 1:10.06983 2:10.05033 3:10.30133 4:-0.16338
8.234392e+00 1:7.23332 2:8.08692 3:8.24268 4:8.97975
-3.024269e-01 1:8.35298 2:7.30289 3:7.64935 4:7.90870
8.856500e+00 1:-2.00000 2:8.16691 3:7.89665 4:8.71334
9.013165e+00 1:9.60152 2:-2.00000 3:8.21991 4:8.73737
9.429252e+00 1:9.73070 2:10.09994 3:-2.00000 4:8.08038
8.562191e+00 1:9.08627 2:9.71839 3:9.75970 4:-2.00000
8.149659e+00 1:8.64880 2:8.93021 3:9.54424 4:9.53943
-2 1:8.37370 2:8.58250 3:8.89645 4:9.45616
9.423772e+00 1:-2.00000 2:8.34985 3:8.49881 4:8.91932
9.535987e+00 1:9.72834 2:-2.00000 3:8.21111 4:8.39890
8.934516e+00 1:9.44719 2:9.47007 3:-2.00000 4:8.21200
8.510360e+00 1:8.93031 2:9.35918 3:9.24306 4:-2.00000
7.896522e+00 1:8.58181 2:8.97437 3:9.88910 4:9.95343
-2 1:8.08674 2:8.37340 3:8.97664 4:9.59180
9.773959e+00 1:-2.00000 2:8.08933 3:8.41680 4:9.09374
9.747125e+00 1:9.72312 2:-1.38330 3:8.08662 4:7.67246
8.615763e+00 1:8.87704 2:9.01917 3:-2.00000 4:8.46820
7.544840e+00 1:8.44610 2:8.59100 3:8.91774 4:-0.44890
8.542044e+00 1:7.20943 2:8.09159 3:8.21733 4:8.30491
-2.320816e-01 1:8.28013 2:7.11892 3:8.03279 4:8.06095
8.627379e+00 1:-2.00000 2:8.23219 3:8.26761 4:9.39772
9.597152e+00 1:10.03212 2:-0.13906 3:7.75340 4:7.70999
8.817892e+00 1:9.12011 2:9.23756 3:-2.00000 4:8.12622
8.377143e+00 1:9.48412 2:9.58414 3:9.77118 4:-0.67009
8.383700e+00 1:7.43555 2:8.23709 3:8.59314 4:8.36951
-1.627966e-02 1:8.20586 2:10.72481 3:10.58812 4:9.82596
8.503824e+00 1:-0.19839 2:8.17716 3:10.87949 4:10.75511
9.784028e+00 1:8.57880 2:-0.71530 3:8.32910 4:7.53994
7.807982e+00 1:7.76693 2:8.85817 3:-2.00000 4:8.09827
8.861094e+00 1:9.61777 2:9.68599 3:10.00578 4:-2.00000
8.251822e+00 1:8.72811 2:8.94816 3:9.47880 4:10.26564
-4.696755e-01 1:8.03561 2:8.40496 3:8.60523 4:9.17801
9.618044e+00 1:-0.66621 2:8.08515 3:7.28254 4:8.10965
8.952650e+00 1:9.29921 2:-0.08433 3:8.34130 4:7.41110
8.248666e+00 1:8.63731 2:9.06050 3:-0.16111 4:6.96745
8.191188e+00 1:8.15196 2:8.48435 3:9.33311 4:-0.02649
7.956714e+00 1:7.40199 2:8.10486 3:8.92476 4:9.19702
-2 1:8.39706 2:8.09497 3:9.47756 4:10.67093
1.078543e+01 1:-0.00328 2:7.74235 3:7.86337 4:8.72310
9.258760e+00 1:10.08853 2:-2.00000 3:8.31924 4:8.21670
8.980455e+00 1:9.39005 2:10.07422 3:-1.97685 4:7.68403
8.305552e+00 1:9.69308 2:10.30926 3:10.16843 4:-2.00000
8.395128e+00 1:8.09288 2:9.35624 3:10.40061 4:10.90703
-9.869242e-02 1:8.46932 2:7.50523 3:8.08631 4:8.38577
8.499095e+00 1:-0.64878 2:8.12889 3:7.80280 4:8.54655
8.973872e+00 1:9.29635 2:-2.00000 3:7.93112 4:8.16457
9.073599e+00 1:9.41464 2:9.79142 3:-1.24972 4:8.32546
7.752667e+00 1:8.32661 2:9.69373 3:10.19388 4:-0.25469
8.190978e+00 1:7.40876 2:8.16313 3:8.76225 4:9.90101
-9.156890e-01 1:8.33054 2:7.41727 3:8.28851 4:8.43899
9.135623e+00 1:-2.00000 2:8.05626 3:7.79129 4:8.76798
9.229357e+00 1:9.72979 2:-2.00000 3:8.25109 4:7.65650
8.577418e+00 1:9.01053 2:9.91903 3:-2.00000 4:7.71069
8.537601e+00 1:9.78966 2:10.46868 3:10.44115 4:-2.00000
8.282144e+00 1:8.15855 2:9.07941 3:9.63499 4:10.41246
-3.849843e-01 1:7.98914 2:7.73954 3:8.15067 4:8.68772
8.536820e+00 1:-2.00000 2:8.15626 3:8.88981 4:10.00960
1.095888e+01 1:10.64333 2:-2.00000 3:8.37296 4:8.11534
9.200394e+00 1:10.79517 2:10.89836 3:-1.30717 4:8.40464
7.493866e+00 1:8.12606 2:8.47826 3:8.72074 4:-0.11888
8.224237e+00 1:7.46077 2:8.06139 3:9.04302 4:9.64611
-8.046913e-01 1:7.50163 2:8.57142 3:9.80049 4:10.37127
1.061472e+01 1:-2.00000 2:8.19510 3:8.99702 4:10.34087
1.107777e+01 1:11.28473 2:-2.00000 3:8.38161 4:8.64973
9.570715e+00 1:10.63442 2:10.68867 3:-2.00000 4:8.15591
8.064581e+00 1:8.87845 2:9.94931 3:9.97264 4:-0.17089
8.462266e+00 1:10.23688 2:10.22501 3:9.31534 4:8.21348
-2 1:8.03020 2:7.88265 3:8.76152 4:9.54937
9.376470e+00 1:-0.40032 2:8.30976 3:13.94374 4:13.83898
1.350371e+01 1:13.81091 2:-0.64924 3:7.67018 4:10.76773
1.080930e+01 1:11.24021 2:11.24090 3:-0.26354 4:7.07801
7.414093e+00 1:7.64247 2:7.67304 3:8.07861 4:-0.07651
7.502118e+00 1:7.08193 2:7.32732 3:7.71393 4:7.62952
-2 1:8.13412 2:8.14759 3:8.74915 4:9.15008
8.789233e+00 1:-2.00000 2:8.14187 3:8.03553 4:8.64883
9.351608e+00 1:9.70429 2:-2.00000 3:8.09754 4:8.82613
9.428777e+00 1:9.53440 2:9.10763 3:-2.00000 4:8.24767
8.139014e+00 1:8.81223 2:9.16756 3:9.05996 4:-0.03186
7.616776e+00 1:8.09840 2:8.34354 3:7.87615 4:8.05652
-1.343711e+00 1:8.14802 2:8.50332 3:8.63949 4:9.65910
9.562932e+00 1:-0.85230 2:8.20478 3:6.96359 4:7.62602
8.194666e+00 1:9.45616 2:-0.18673 3:7.56203 4:8.98187
9.847576e+00 1:9.30145 2:9.97165 3:-2.00000 4:8.21483
9.378589e+00 1:9.54112 2:9.31310 3:9.98436 4:-0.04022
8.235837e+00 1:6.88567 2:7.31632 3:7.89631 4:8.99871
-2 1:7.99357 2:8.77879 3:9.36131 4:10.31504
1.041869e+01 1:-0.38778 2:8.06644 3:7.35426 4:8.80689
9.700536e+00 1:9.78994 2:-0.05785 3:8.46452 4:7.18455
7.696396e+00 1:8.43291 2:7.91347 3:-0.43263 4:8.45325
6.974274e+00 1:7.94297 2:8.47951 3:8.75310 4:-0.05510
8.540104e+00 1:7.03365 2:7.69558 3:8.45847 4:8.30577
-4.670168e-02 1:7.75909 2:8.49332 3:8.19264 4:7.76256
7.684812e+00 1:-0.10983 2:8.50678 3:7.30727 4:8.31863
7.690519e+00 1:7.64380 2:-0.03329 3:8.51139 4:8.54586
7.741669e+00 1:7.85599 2:7.73369 3:-0.05524 4:8.53406
8.544145e+00 1:7.81230 2:7.66975 3:7.68014 4:-0.00586
8.510442e+00 1:8.05991 2:8.45799 3:7.87878 4:8.19799
-2.666450e-02 1:8.47325 2:7.93417 3:8.37933 4:7.63065
7.597866e+00 1:-0.05493 2:8.47855 3:8.59987 4:8.00954
7.677133e+00 1:7.45829 2:-0.05266 3:8.36176 4:8.39901
8.449586e+00 1:7.63382 2:7.96279 3:-2.00000 4:8.06404
8.699986e+00 1:10.02473 2:9.83940 3:9.23753 4:-0.01286
8.294974e+00 1:6.77214 2:7.42554 3:7.82137 4:7.26171
-5.835350e-01 1:8.32219 2:7.55067 3:8.32018 4:8.56067
8.505451e+00 1:-0.02333 2:7.92758 3:6.62177 4:7.02090
7.249448e+00 1:7.32269 2:-0.17979 3:8.23685 4:6.72519
6.984143e+00 1:7.19831 2:7.07478 3:-0.06004 4:8.22093
6.657327e+00 1:6.96157 2:7.59808 3:7.73680 4:-0.03678
8.297584e+00 1:6.74497 2:7.30590 3:7.05231 4:7.09729
-1.047431e-01 1:8.24707 2:6.54471 3:6.97665 4:7.12464
7.448863e+00 1:-0.10990 2:8.00704 3:6.56315 4:7.12701
7.686399e+00 1:8.25584 2:-0.04005 3:8.14877 4:6.51481
7.150043e+00 1:7.74435 2:8.12216 3:-0.17140 4:6.91018
8.142381e+00 1:8.01624 2:8.66496 3:8.91080 4:-0.12561
8.629154e+00 1:9.24089 2:9.21742 3:8.55773 4:7.75277
-2 1:7.87372 2:8.33365 3:8.92229 4:9.90096
9.750705e+00 1:-0.40530 2:8.14790 3:8.02017 4:7.97477
9.045444e+00 1:9.39727 2:-0.01981 3:8.44644 4:8.78217
8.409279e+00 1:7.69872 2:7.84817 3:-1.03317 4:8.32836
6.956718e+00 1:7.73626 2:7.99819 3:8.77557 4:-0.15709
8.205880e+00 1:6.59218 2:7.78388 3:7.75925 4:7.40513
-6.017178e-02 1:7.19666 2:7.93464 3:7.78783 4:8.37260
8.642317e+00 1:-0.15108 2:8.29149 3:8.10796 4:8.09140
8.801221e+00 1:8.51711 2:-0.00419 3:8.31668 4:8.05040
7.233566e+00 1:7.67987 2:7.87356 3:-0.05952 4:8.47178
7.986329e+00 1:7.26528 2:7.60802 3:7.48945 4:-2.00000
8.098188e+00 1:8.34431 2:8.94755 3:9.80598 4:9.97637
-2 1:8.19482 2:8.47602 3:9.16446 4:9.55967
1.006650e+01 1:-0.09071 2:8.38299 3:7.93016 4:7.48824
7.348744e+00 1:7.19256 2:-2.00000 3:8.45032 4:8.05265
8.764586e+00 1:9.34474 2:9.42395 3:-2.00000 4:8.27492
7.867968e+00 1:8.67990 2:9.33877 3:9.45027 4:-0.07030
7.739868e+00 1:8.10051 2:7.58205 3:7.55429 4:8.11933
-1.171615e+00 1:8.42441 2:7.57690 3:8.42034 4:8.80058
9.229704e+00 1:-0.60316 2:8.41294 3:7.91112 4:8.30207
8.797776e+00 1:8.72545 2:-0.14717 3:8.54556 4:8.02240
7.642142e+00 1:8.28219 2:7.95533 3:-0.68049 4:8.34653
7.467671e+00 1:8.41250 2:8.63340 3:8.80753 4:-0.03917
8.492439e+00 1:7.80640 2:7.36406 3:7.36712 4:7.72905
-6.682595e-02 1:8.17046 2:7.86478 3:7.15372 4:7.73914
7.657857e+00 1:-2.00000 2:8.40343 3:8.17118 4:8.77220
9.494819e+00 1:9.72690 2:-0.34586 3:8.32699 4:7.56101
8.399891e+00 1:8.70336 2:8.74669 3:-0.15370 4:7.57277
7.110797e+00 1:7.76701 2:7.61108 3:7.17578 4:-2.00000
8.149454e+00 1:7.71653 2:8.76073 3:9.38971 4:9.54861
-2 1:8.34081 2:8.12734 3:8.80112 4:9.41436
9.368167e+00 1:-1.49271 2:8.15813 3:7.93090 4:8.97927
8.747237e+00 1:8.70210 2:-0.00830 3:8.41525 4:7.25583
8.345286e+00 1:8.81210 2:9.00015 3:-2.00000 4:8.43101
7.767809e+00 1:8.80087 2:9.19372 3:8.91228 4:-2.00000
8.410073e+00 1:7.85032 2:8.71620 3:9.03635 4:9.34056
-1.062031e-01 1:7.70338 2:7.96377 3:7.55913 4:7.55940
7.277973e+00 1:-0.63169 2:8.37719 3:7.41584 4:8.30220
8.637008e+00 1:8.46247 2:-2.00000 3:8.28053 4:8.34614
8.973113e+00 1:9.18088 2:9.13259 3:-0.15421 4:8.29590
7.133350e+00 1:7.88461 2:7.24281 3:7.04198 4:-0.71823
8.373080e+00 1:7.99318 2:8.06675 3:8.68601 4:8.96812
-1.357132e-02 1:7.89851 2:7.66163 3:7.48207 4:7.17745
7.566109e+00 1:-0.14472 2:8.49347 3:7.47495 4:7.94050
8.539542e+00 1:8.76733 2:-2.00000 3:8.27862 4:7.78610
8.598866e+00 1:8.77603 2:9.15518 3:-2.00000 4:8.28155
9.536401e+00 1:9.35988 2:9.26033 3:9.73254 4:-0.27751
8.137201e+00 1:7.79531 2:7.89707 3:8.24619 4:9.12511
-1.731278e-01 1:8.24062 2:7.00125 3:7.43785 4:7.08286
8.129461e+00 1:-0.04317 2:7.44981 3:7.51439 4:8.07450
8.281620e+00 1:8.66388 2:-0.27689 3:8.25979 4:7.71280
8.264726e+00 1:8.60864 2:8.58798 3:-2.00000 4:8.28705
7.701494e+00 1:8.38342 2:8.80535 3:9.09067 4:-2.00000
8.038494e+00 1:7.80199 2:8.78753 3:9.26004 4:9.62694
-2 1:7.97524 2:8.51416 3:9.61970 4:10.77598
1.032943e+01 1:-2.00000 2:8.18760 3:7.83597 4:8.76915
9.588325e+00 1:10.00180 2:-0.10512 3:8.10913 4:7.32800
7.935456e+00 1:8.62299 2:9.82012 3:-0.97333 4:8.20781
7.355692e+00 1:8.05425 2:8.26166 3:9.56791 4:-0.05476
8.356890e+00 1:7.70563 2:8.12984 3:8.69749 4:8.48524
-2 1:7.86685 2:8.20420 3:9.26897 4:10.02027
9.933223e+00 1:-2.00000 2:8.10285 3:8.32962 4:9.83840
1.025096e+01 1:10.44600 2:-2.00000 3:8.16929 4:7.50175
8.211689e+00 1:9.24653 2:9.98002 3:-1.03810 4:7.68419
8.286355e+00 1:9.32078 2:9.64463 3:10.47566 4:-1.71597
7.742354e+00 1:7.86337 2:8.72310 3:9.25876 4:10.08853
-2 1:8.31924 2:8.21670 3:8.98045 4:9.39005
1.007422e+01 1:-0.53592 2:7.68403 3:8.30555 4:9.69308
1.030926e+01 1:10.16843 2:-1.84880 3:8.12889 4:7.80280
8.546547e+00 1:8.97387 2:9.29635 3:-2.00000 4:7.93112
8.164573e+00 1:9.07360 2:9.41464 3:9.79142 4:-1.89626
8.325461e+00 1:7.75267 2:8.32661 3:9.69373 4:10.19388
-1.974196e+00 1:8.33054 2:7.41727 3:8.28851 4:8.43899
9.135623e+00 1:-2.00000 2:7.71069 3:8.53760 4:9.78966
1.046868e+01 1:10.44115 2:-2.00000 3:8.28214 4:8.15855
9.079413e+00 1:9.63499 2:10.41246 3:-2.00000 4:8.15626
8.889812e+00 1:10.00960 2:10.95888 3:10.64333 4:-2.00000
8.372963e+00 1:8.11534 2:9.20039 3:10.79517 4:10.89836
-2.938964e-01 1:8.40464 2:7.49387 3:8.12606 4:8.47826
8.720740e+00 1:-1.40200 2:8.22424 3:7.46077 4:8.06139
9.043016e+00 1:9.64611 2:-2.00000 3:7.50163 4:8.57142
9.800495e+00 1:10.37127 2:10.61472 3:-2.00000 4:8.19510
8.997017e+00 1:10.34087 2:11.07777 3:11.28473 4:-2.00000
8.381610e+00 1:8.64973 2:9.57071 3:10.63442 4:10.68867
-3.138101e-01 1:8.40387 2:7.94346 3:8.21017 4:8.45752
9.364505e+00 1:-0.17640 2:7.09173 3:8.58351 4:8.65881
8.294893e+00 1:8.85150 2:-0.32355 3:6.84782 4:9.27094
9.356325e+00 1:8.41397 2:8.81903 3:-0.06028 4:7.68445
8.679032e+00 1:8.60953 2:7.98163 3:7.99558 4:-2.00000
8.095002e+00 1:8.18018 2:8.70056 3:9.24439 4:9.45367
-2 1:8.17675 2:7.97520 3:8.85361 4:8.99241
9.628715e+00 1:-2.00000 2:7.99216 3:8.93077 4:9.87544
1.021088e+01 1:10.55691 2:-2.00000 3:8.39685 4:8.27844
9.214675e+00 1:10.03519 2:10.36552 3:-2.00000 4:7.99204
7.843686e+00 1:8.69289 2:9.23086 3:9.02833 4:-1.54807
8.445878e+00 1:8.51005 2:9.03561 3:9.18714 4:9.16417
-2 1:8.16269 2:8.35912 3:9.18316 4:9.66625
9.740918e+00 1:-2.00000 2:8.31892 3:8.30631 4:9.03104
1.012845e+01 1:10.23934 2:-2.00000 3:8.34373 4:8.20587
9.223046e+00 1:10.00187 2:10.51458 3:-0.20367 4:8.33482
8.016963e+00 1:7.86510 2:8.56800 3:8.79766 4:-2.00000
8.075852e+00 1:7.97177 2:8.64302 3:8.85915 4:9.05682
-2 1:7.88128 2:8.68735 3:9.77906 4:10.17799
1.059644e+01 1:-2.00000 2:8.30871 3:8.23245 4:9.25703
9.614946e+00 1:10.16583 2:-1.10361 3:8.11080 4:7.80529
8.047551e+00 1:8.88005 2:9.81825 3:-0.67732 4:8.38907
7.615839e+00 1:7.89835 2:8.25146 3:8.97196 4:-0.14214
8.535197e+00 1:9.82203 2:9.45211 3:8.47342 4:8.43462
-7.943024e-01 1:8.29021 2:7.86410 3:8.32020 4:9.08975
9.894745e+00 1:-0.68039 2:7.55447 3:8.06527 4:8.99054
1.014809e+01 1:10.37229 2:-0.14759 3:8.17208 4:7.43904
8.436487e+00 1:8.36571 2:7.54376 3:-2.00000 4:8.12064
9.222693e+00 1:9.69749 2:9.45604 3:9.07225 4:-0.14287
7.300714e+00 1:7.86689 2:8.22278 3:8.32818 4:8.33231
-1.959239e-01 1:6.80057 2:11.09560 3:11.39176 4:11.22950
1.067581e+01 1:-0.24777 2:6.63371 3:11.03874 4:11.08970
1.120839e+01 1:10.47632 2:-2.00000 3:7.76617 4:8.87492
9.370868e+00 1:9.70100 2:9.42394 3:-2.00000 4:8.34866
8.303965e+00 1:8.97954 2:9.30230 3:9.78474 4:-0.11885
8.463103e+00 1:8.83648 2:8.46509 3:8.01764 4:8.77880
-3.193310e-02 1:8.23970 2:9.01064 3:8.98153 4:7.88667
7.773036e+00 1:-2.00000 2:7.98766 3:8.68451 4:9.60609
9.714811e+00 1:9.59475 2:-2.00000 3:8.31484 4:8.60294
9.484709e+00 1:9.70241 2:9.63859 3:-2.00000 4:8.11346
7.700966e+00 1:8.81711 2:9.28991 3:8.94145 4:-2.00000
8.179586e+00 1:8.19500 2:9.13328 3:9.38331 4:9.50822
-1.187755e-02 1:7.68354 2:7.35705 3:8.24294 4:8.85525
8.987949e+00 1:-2.00000 2:7.94927 3:8.72110 4:9.56403
9.724064e+00 1:9.89303 2:-2.00000 3:7.94847 4:8.73769
9.529025e+00 1:9.79757 2:9.78821 3:-0.10600 4:8.20644
8.406386e+00 1:8.47182 2:7.87052 3:7.21291 4:-0.07635
8.243011e+00 1:8.71197 2:8.64776 3:7.95066 4:7.35575
-3.896831e-02 1:8.26140 2:8.19750 3:8.23256 4:8.24581
7.328739e+00 1:-2.00000 2:8.05846 3:8.67707 4:9.57633
1.020077e+01 1:10.22019 2:-0.12827 3:7.82407 4:7.45319
7.988419e+00 1:8.80499 2:9.40038 3:-0.08224 4:7.57422
7.616991e+00 1:8.02469 2:8.34100 3:7.79454 4:-0.10309
8.273098e+00 1:7.70628 2:7.92201 3:7.74131 4:6.96484
-2 1:8.27596 2:8.08779 3:8.67137 4:9.25911
9.312651e+00 1:-2.00000 2:8.30532 3:8.50702 4:9.38366
9.320791e+00 1:9.28160 2:-0.12866 3:7.91723 4:9.97751
1.017583e+01 1:9.88332 2:9.56017 3:-0.06215 4:8.03824
9.919299e+00 1:9.79345 2:8.74776 3:8.21950 4:-2.00000
8.330981e+00 1:9.63991 2:9.75652 3:9.92191 4:10.10150
-8.632581e-01 1:8.05427 2:8.32352 3:8.34274 4:8.61631
8.703139e+00 1:-2.00000 2:7.92192 3:8.91373 4:9.72782
1.012850e+01 1:9.81291 2:-2.00000 3:8.23001 4:8.52051
8.982617e+00 1:9.32273 2:10.15706 3:-2.00000 4:8.19393
8.358257e+00 1:8.66583 2:9.07041 3:9.77951 4:-2.00000
7.794708e+00 1:9.72901 2:10.50401 3:10.47668 4:9.81897
-8.526078e-01 1:8.32323 2:8.23666 3:8.24627 4:8.39614
9.203189e+00 1:-0.49356 2:8.33134 3:8.36115 4:8.39203
8.654357e+00 1:8.75410 2:-0.17815 3:8.28512 4:8.18916
8.427329e+00 1:8.76997 2:8.71060 3:-2.00000 4:7.94777
9.051617e+00 1:9.36695 2:9.90675 3:10.00356 4:-2.00000
8.354509e+00 1:8.85859 2:9.42095 3:9.58821 4:10.08807
-1.327600e+00 1:8.34579 2:10.21718 3:9.96379 4:10.07782
9.537910e+00 1:-0.09189 2:8.27618 3:10.72387 4:10.10964
9.343963e+00 1:8.76838 2:-0.36871 3:8.15931 4:9.87891
9.936401e+00 1:10.03215 2:9.27726 3:-0.70593 4:8.40791
9.581576e+00 1:9.50733 2:9.45680 3:9.19691 4:-0.69799
8.107731e+00 1:10.68303 2:10.74788 3:10.20973 4:9.89972
-1.780971e-01 1:8.25736 2:11.37486 3:10.97891 4:10.06610
9.738302e+00 1:-2.00000 2:8.06181 3:8.29475 4:8.78405
9.497344e+00 1:9.66359 2:-2.00000 3:8.24131 4:8.35615
9.129372e+00 1:9.89117 2:10.00888 3:-2.00000 4:8.16763
8.321332e+00 1:8.89567 2:9.24107 3:9.98037 4:-0.29364
8.254053e+00 1:8.36635 2:8.35811 3:8.75609 4:8.40909
-2 1:8.28744 2:8.13324 3:8.63652 4:9.07853
9.257985e+00 1:-2.00000 2:8.33759 3:8.04935 4:8.18747
8.796821e+00 1:8.88416 2:-1.07397 3:8.19098 4:8.04553
8.441095e+00 1:8.88120 2:8.90477 3:-0.04782 4:8.11368
8.036662e+00 1:8.60514 2:8.83906 3:9.18512 4:-2.00000
8.135335e+00 1:7.91759 2:8.71989 3:8.98616 4:9.19538
-2 1:8.15258 2:7.97360 3:8.94603 4:9.52592
9.580767e+00 1:-2.00000 2:8.25055 3:7.98777 4:8.90561
9.678588e+00 1:9.94527 2:-0.70674 3:8.30700 4:7.93997
8.489331e+00 1:8.72469 2:8.96779 3:-2.00000 4:8.28969
7.976003e+00 1:8.58368 2:9.14418 3:9.19019 4:-2.00000
8.331983e+00 1:8.15018 2:8.68740 3:8.97467 4:8.92726
-2 1:8.26365 2:7.83250 3:8.66446 4:9.62657
9.701463e+00 1:-2.00000 2:8.36764 3:7.78654 4:8.58681
8.847965e+00 1:8.86335 2:-2.00000 3:8.18430 4:7.95829
8.674551e+00 1:9.39019 2:9.36004 3:-2.00000 4:8.11620
7.929388e+00 1:8.92335 2:9.92410 3:9.82562 4:-2.00000
8.243059e+00 1:8.02438 2:9.04863 3:9.66091 4:9.91333
-2 1:8.25130 2:7.92839 3:8.43874 4:8.97482
8.964854e+00 1:-2.00000 2:8.09815 3:7.99331 4:8.34719
8.821894e+00 1:8.85241 2:-2.00000 3:7.96828 4:8.09856
8.826929e+00 1:9.67706 2:9.75020 3:-2.00000 4:8.01010
7.979741e+00 1:8.96554 2:9.64826 3:9.71026 4:-2.00000
8.183383e+00 1:7.98982 2:8.66325 3:9.34917 4:9.62752
-2 1:8.29116 2:7.81726 3:8.38066 4:8.74440
8.901039e+00 1:-0.97466 2:8.29610 3:7.76137 4:8.38965
8.674422e+00 1:9.08484 2:-0.98121 3:8.34898 4:7.75235
8.248628e+00 1:8.66445 2:8.92190 3:-1.91969 4:8.22651
7.836198e+00 1:8.35990 2:8.79254 3:8.81949 4:-2.00000
8.138172e+00 1:7.76100 2:8.71588 3:9.24106 4:9.64814
-2 1:8.32489 2:7.78643 3:8.62288 4:9.10125
9.278899e+00 1:-1.28091 2:8.22083 3:7.80747 4:8.56349
9.027398e+00 1:9.49336 2:-2.00000 3:8.14973 4:7.98748
8.557939e+00 1:9.34321 2:9.67061 3:-2.00000 4:8.34042
8.084664e+00 1:9.02495 2:9.67963 3:9.84464 4:-2.00000
8.266447e+00 1:7.96127 2:8.60730 3:9.07821 4:9.44639
-2 1:8.24563 2:8.02298 3:8.74265 4:9.25663
9.687548e+00 1:-2.00000 2:8.18434 3:7.91996 4:8.82649
9.172251e+00 1:9.25806 2:-1.37795 3:8.38560 4:7.89513
8.363842e+00 1:8.67370 2:8.86303 3:-2.00000 4:8.26881
7.715827e+00 1:8.52730 2:8.77471 3:9.15882 4:-0.60459
8.199800e+00 1:7.93718 2:8.54596 3:9.35181 4:9.63858
-2 1:8.30089 2:7.82782 3:8.60245 4:9.16281
9.657893e+00 1:-0.30760 2:8.09351 3:7.74812 4:8.27505
8.618958e+00 1:8.55882 2:-2.00000 3:8.34889 4:7.78602
8.745261e+00 1:9.44640 2:9.81828 3:-0.05456 4:8.42089
7.723630e+00 1:8.09892 2:8.49526 3:8.96237 4:-0.86155
8.136573e+00 1:7.82217 2:8.26280 3:8.89117 4:8.89164
-2 1:8.07267 2:7.87134 3:8.99525 4:9.91282
1.007512e+01 1:-2.00000 2:8.32369 3:7.80063 4:8.63531
9.508828e+00 1:9.80097 2:-2.00000 3:8.14235 4:7.83155
8.668929e+00 1:9.81152 2:10.07643 3:-2.00000 4:8.19816
7.851624e+00 1:8.81608 2:10.08676 3:10.08626 4:-2.00000
8.171976e+00 1:7.66718 2:8.44632 3:9.20947 4:10.00370
-2 1:8.33629 2:7.85568 3:8.64381 4:9.23741
9.840411e+00 1:-2.00000 2:8.21761 3:7.96345 4:8.81203
9.723194e+00 1:9.91893 2:-2.00000 3:8.34403 4:7.80042
8.510373e+00 1:9.24307 2:9.80576 3:-2.00000 4:8.24522
7.777231e+00 1:8.52815 2:9.17750 3:9.82084 4:-0.97919
8.159883e+00 1:7.85136 2:8.64803 3:9.83024 4:9.97302
-8.822735e-01 1:8.53177 2:7.64991 3:8.10380 4:8.66147
9.022910e+00 1:-2.00000 2:8.17991 3:7.89048 4:8.87914
9.484402e+00 1:10.10205 2:-2.00000 3:8.19690 4:8.39829
8.805645e+00 1:9.85258 2:10.03296 3:-2.00000 4:8.18322
7.672997e+00 1:8.65141 2:9.58862 3:10.00048 4:-2.00000
8.214248e+00 1:7.73572 2:8.65440 3:9.40535 4:9.93947
-2 1:8.27381 2:7.65571 3:8.41690 4:8.84821
9.097227e+00 1:-2.00000 2:8.04183 3:8.42352 4:9.40108
1.000209e+01 1:10.05523 2:-2.00000 3:8.34763 4:7.96928
8.847742e+00 1:9.42953 2:10.21318 3:-0.92293 4:8.28543
8.076289e+00 1:8.59022 2:8.57296 3:9.19953 4:-0.07107
8.238665e+00 1:10.95053 2:10.82803 3:9.60622 4:8.94372
-2 1:7.97277 2:8.42525 3:9.12381 4:9.58950
9.294062e+00 1:-2.00000 2:8.35967 3:8.03655 4:8.60500
8.906030e+00 1:8.82339 2:-2.00000 3:8.33504 4:8.07857
8.488624e+00 1:9.22092 2:9.81434 3:-2.00000 4:7.94857
8.483739e+00 1:9.49501 2:9.51461 3:9.10318 4:-2.00000
8.273189e+00 1:7.95719 2:8.57246 3:8.69435 4:9.03804
-1.115585e+00 1:8.02638 2:10.02983 3:10.05663 4:9.61517
9.937044e+00 1:-0.43234 2:8.26693 3:8.83843 4:8.91310
8.946257e+00 1:9.52426 2:-2.00000 3:8.25128 4:8.23227
8.682549e+00 1:8.92284 2:9.33116 3:-0.35787 4:8.26004
8.173795e+00 1:8.60635 2:9.19193 3:8.81063 4:-2.00000
8.339111e+00 1:8.06224 2:8.52872 3:8.90997 4:8.82616
-2 1:8.29529 2:8.15169 3:8.63231 4:8.98953
9.312971e+00 1:-2.00000 2:8.21718 3:7.95087 4:8.51684
9.033768e+00 1:9.10631 2:-0.40099 3:8.17284 4:7.97238
8.523923e+00 1:9.26539 2:9.04808 3:-2.00000 4:8.31441
7.908877e+00 1:8.71129 2:9.02059 3:9.22641 4:-0.14577
8.264339e+00 1:7.78229 2:8.48371 3:9.52642 4:8.69118
-2 1:8.17177 2:9.82485 3:9.63649 4:9.77605
9.998799e+00 1:-0.28800 2:8.31723 3:7.92307 4:8.33212
8.951815e+00 1:8.80482 2:-0.08483 3:8.25926 4:8.33321
8.645814e+00 1:9.20380 2:9.44683 3:-2.00000 4:8.05262
9.133814e+00 1:10.11694 2:10.28667 3:10.17872 4:-0.45211
8.198497e+00 1:7.92019 2:8.52099 3:8.95091 4:8.73036
-9.656970e-01 1:8.31983 2:7.95370 3:8.83633 4:9.22120
8.504756e+00 1: