svm_type c_svc
kernel_type rbf
gamma 0.5000
nr_class 2
total_sv 659
rho 0.8357
label 1 0
nr_sv 318 341
SV
1.700000e-01 1:8.08990 2:10.24341 3:9.03224 4:8.86251 5:9.34370
1.700000e-01 1:8.28045 2:10.80945 3:8.92810 4:9.05667 5:9.00567
1.700000e-01 1:8.13292 2:10.94760 3:9.23001 4:9.19949 5:9.24271
1.700000e-01 1:8.14695 2:10.70039 3:8.99243 4:8.82867 5:8.49746
1.700000e-01 1:8.18278 2:10.52483 3:9.38227 4:9.57528 5:9.40579
1.700000e-01 1:8.25254 2:10.61073 3:9.30932 4:9.34605 5:9.24206
1.700000e-01 1:8.22824 2:10.87305 3:9.14751 4:9.47541 5:9.16426
1.700000e-01 1:8.26151 2:10.83864 3:8.16506 4:8.51081 5:9.08639
1.700000e-01 1:8.31645 2:10.78830 3:8.15480 4:8.84720 5:9.24077
1.700000e-01 1:8.34367 2:10.76196 3:7.76583 4:8.39330 5:8.97434
1.700000e-01 1:8.31357 2:10.95260 3:8.39280 4:8.79945 5:9.44770
1.700000e-01 1:8.25282 2:10.49016 3:7.78824 4:8.63625 5:8.95726
1.700000e-01 1:8.18408 2:10.92335 3:7.98580 4:8.20667 5:8.99562
1.700000e-01 1:8.23290 2:10.31434 3:7.99546 4:8.35966 5:9.07413
1.700000e-01 1:8.19823 2:9.96280 3:7.51440 4:8.46003 5:8.19962
1.700000e-01 1:8.18449 2:10.79554 3:9.29989 4:9.46416 5:8.89249
1.700000e-01 1:8.08595 2:10.89142 3:9.53248 4:9.50614 5:9.32273
1.700000e-01 1:8.04450 2:11.02620 3:9.74593 4:9.78153 5:9.67671
1.700000e-01 1:8.24932 2:11.03829 3:9.31794 4:9.32776 5:9.46749
1.700000e-01 1:8.29185 2:11.06338 3:8.53471 4:8.90116 5:9.33987
1.700000e-01 1:8.28178 2:11.01836 3:8.82228 4:8.99931 5:9.35303
1.700000e-01 1:8.22129 2:10.56283 3:8.36422 4:8.75614 5:9.28471
1.700000e-01 1:8.26071 2:10.67676 3:7.85385 4:8.94896 5:9.67736
1.700000e-01 1:8.39668 2:10.67197 3:8.15217 4:8.95257 5:9.36507
1.700000e-01 1:8.17409 2:10.26510 3:7.67254 4:8.50802 5:8.81394
1.700000e-01 1:8.11398 2:10.85006 3:7.57014 4:8.40984 5:8.94832
1.700000e-01 1:8.27200 2:10.69799 3:7.76753 4:8.46250 5:9.40316
1.700000e-01 1:8.28909 2:10.39363 3:7.76469 4:8.72842 5:9.17155
1.700000e-01 1:8.24423 2:10.44343 3:7.99512 4:8.43929 5:9.31525
1.700000e-01 1:8.14287 2:10.17720 3:8.02513 4:8.37433 5:9.19201
1.700000e-01 1:8.05302 2:10.35822 3:7.96587 4:8.48662 5:9.04006
1.700000e-01 1:8.15013 2:10.53120 3:7.96550 4:8.86078 5:9.21896
1.700000e-01 1:8.21848 2:10.88244 3:8.81629 4:9.25283 5:9.22565
1.700000e-01 1:8.21078 2:10.77995 3:9.27473 4:9.08522 5:9.46087
1.700000e-01 1:8.34655 2:10.81282 3:9.32009 4:9.38398 5:9.15860
1.700000e-01 1:8.24459 2:10.82107 3:8.55164 4:8.81193 5:9.08424
1.700000e-01 1:8.32023 2:10.64109 3:8.23039 4:8.66346 5:9.12827
1.700000e-01 1:8.34997 2:10.35086 3:8.23785 4:8.72892 5:9.38057
1.700000e-01 1:8.26657 2:10.28757 3:8.50637 4:8.93711 5:8.86634
1.700000e-01 1:8.32352 2:10.75456 3:8.42336 4:9.15374 5:9.14816
5.673028e-02 1:8.29204 2:10.92855 3:8.16474 4:8.96631 5:9.51418
1.700000e-01 1:8.17967 2:9.93148 3:7.62404 4:8.35491 5:9.35512
1.700000e-01 1:8.18049 2:10.78930 3:8.08481 4:8.76083 5:9.11693
1.700000e-01 1:8.17934 2:10.67691 3:8.91905 4:9.03071 5:9.23195
1.700000e-01 1:8.31302 2:11.13673 3:9.40853 4:9.26270 5:9.49970
1.700000e-01 1:8.24390 2:11.21000 3:9.66778 4:9.74545 5:9.68398
1.700000e-01 1:8.27141 2:11.76439 3:8.64812 4:9.95722 5:9.76073
1.282365e-01 1:8.39068 2:11.68822 3:8.46633 4:9.41053 5:10.65675
1.700000e-01 1:8.38732 2:11.70713 3:8.30939 4:9.36474 5:10.67042
1.700000e-01 1:8.11908 2:10.29968 3:7.35135 4:8.38555 5:9.31629
1.700000e-01 1:7.91240 2:11.66650 3:8.12406 4:8.88592 5:8.78848
1.700000e-01 1:8.27496 2:11.69087 3:8.67564 4:9.58193 5:9.80263
1.700000e-01 1:8.24817 2:11.68458 3:9.14073 4:9.56503 5:9.65205
1.700000e-01 1:8.36188 2:11.77788 3:9.38490 4:10.68856 5:10.88276
1.700000e-01 1:8.40182 2:11.51998 3:8.47750 4:9.55257 5:10.85387
1.700000e-01 1:8.39405 2:11.49742 3:8.80108 4:10.49041 5:10.88663
1.427949e-01 1:8.32363 2:11.65691 3:9.05903 4:10.45424 5:11.03318
1.700000e-01 1:8.36695 2:11.65792 3:9.63008 4:10.60434 5:10.63251
1.700000e-01 1:8.31721 2:10.58782 3:8.10783 4:8.89628 5:9.32795
1.699367e-01 1:8.30991 2:10.60424 3:7.93758 4:9.57562 5:9.67557
1.700000e-01 1:8.33779 2:10.45410 3:8.23022 4:8.74472 5:9.30420
1.700000e-01 1:8.20097 2:10.62856 3:8.89419 4:9.36443 5:8.97326
1.700000e-01 1:8.26074 2:10.30348 3:8.76094 4:9.05065 5:8.67992
1.700000e-01 1:8.19726 2:10.15225 3:8.51639 4:9.33858 5:9.03358
1.700000e-01 1:8.06641 2:10.13312 3:9.10564 4:9.66703 5:8.90984
1.700000e-01 1:8.18007 2:9.87732 3:8.94135 4:9.28334 5:9.38456
1.700000e-01 1:8.21381 2:10.19946 3:8.67586 4:8.91821 5:8.69330
1.700000e-01 1:8.20195 2:10.26042 3:9.16511 4:9.52616 5:9.03411
1.700000e-01 1:8.18564 2:10.06791 3:8.91053 4:9.45149 5:9.08718
1.700000e-01 1:8.21394 2:10.17612 3:8.24305 4:9.04777 5:8.75335
1.700000e-01 1:8.12651 2:10.22586 3:8.75237 4:8.95112 5:8.70583
1.700000e-01 1:8.17752 2:10.33471 3:8.86652 4:9.01184 5:8.88695
1.953075e-02 1:8.12450 2:10.31506 3:8.57379 4:9.44386 5:9.09075
1.700000e-01 1:8.03696 2:10.14630 3:8.58856 4:9.36735 5:9.10320
1.700000e-01 1:8.17269 2:10.27348 3:9.03026 4:9.48002 5:9.12632
1.700000e-01 1:8.06801 2:10.15704 3:8.86719 4:9.32926 5:9.14072
1.700000e-01 1:8.06783 2:9.82256 3:8.88925 4:9.12544 5:9.03919
1.700000e-01 1:8.16696 2:10.27311 3:8.61847 4:9.13702 5:8.62059
1.700000e-01 1:8.15884 2:10.24664 3:8.88663 4:9.06048 5:9.14697
1.700000e-01 1:7.83892 2:10.13821 3:8.75557 4:9.66369 5:9.16013
1.700000e-01 1:8.19157 2:10.24746 3:9.03067 4:8.81152 5:9.27759
1.700000e-01 1:8.20189 2:10.38352 3:8.74028 4:9.55972 5:8.88367
1.700000e-01 1:8.15291 2:10.08155 3:8.26025 4:9.17698 5:8.96172
1.700000e-01 1:8.19424 2:9.72322 3:8.22450 4:9.07055 5:9.17499
1.700000e-01 1:8.37866 2:10.90505 3:8.27467 4:9.05653 5:9.26119
1.700000e-01 1:8.20428 2:10.78993 3:8.03184 4:9.00688 5:9.44201
1.700000e-01 1:8.03103 2:10.70415 3:9.50379 4:9.59363 5:9.40347
1.700000e-01 1:8.31555 2:10.16931 3:8.50239 4:8.84960 5:9.23004
1.700000e-01 1:8.10062 2:10.37419 3:8.05723 4:8.99286 5:9.04891
1.700000e-01 1:7.87850 2:10.71998 3:8.79709 4:9.37029 5:8.98285
1.700000e-01 1:8.09079 2:10.03110 3:7.24531 4:7.34615 5:8.28211
1.700000e-01 1:8.11004 2:11.02231 3:7.05471 4:7.71221 5:8.69571
1.700000e-01 1:7.65738 2:10.76826 3:9.56330 4:10.33825 5:10.00807
1.700000e-01 1:7.44365 2:10.83084 3:8.78027 4:9.90087 5:10.01837
1.700000e-01 1:7.49719 2:10.77357 3:8.75356 4:9.27703 5:10.23734
1.811570e-02 1:7.57507 2:10.66698 3:8.88153 4:10.11871 5:10.23301
1.700000e-01 1:7.68365 2:10.93887 3:8.75430 4:9.02013 5:10.24337
1.700000e-01 1:7.59549 2:10.82690 3:8.74110 4:9.95861 5:10.40761
1.700000e-01 1:7.98981 2:10.86657 3:9.20459 4:10.16928 5:9.37160
1.700000e-01 1:7.72187 2:10.80273 3:9.61235 4:10.39073 5:9.87970
1.700000e-01 1:7.90695 2:11.23587 3:10.09787 4:10.20989 5:10.45786
1.700000e-01 1:7.62693 2:10.90120 3:9.67802 4:10.37512 5:10.04196
1.700000e-01 1:7.60370 2:10.76574 3:9.63549 4:10.17552 5:10.44546
2.414022e-02 1:7.66622 2:10.68551 3:9.35158 4:10.30845 5:10.34157
1.700000e-01 1:8.22578 2:10.66795 3:7.91734 4:9.08471 5:9.83590
1.700000e-01 1:8.27326 2:10.38627 3:9.47858 4:9.67631 5:9.49070
1.700000e-01 1:8.14611 2:10.01342 3:8.31565 4:9.03900 5:8.61222
1.700000e-01 1:8.23070 2:10.31384 3:8.17800 4:8.83470 5:9.24679
1.700000e-01 1:8.21680 2:10.37927 3:7.98505 4:9.04277 5:9.43470
1.700000e-01 1:8.28161 2:10.29531 3:8.03221 4:9.05083 5:9.40774
1.700000e-01 1:8.20754 2:10.27469 3:8.34086 4:9.00501 5:9.25027
1.700000e-01 1:8.14477 2:10.10657 3:8.34014 4:9.13659 5:9.07007
1.700000e-01 1:8.31185 2:10.13158 3:8.25529 4:8.93444 5:9.17396
1.700000e-01 1:8.31021 2:10.16187 3:8.03178 4:9.00789 5:9.23014
1.700000e-01 1:8.26988 2:10.13498 3:8.15244 4:8.97441 5:9.25504
1.700000e-01 1:8.28292 2:10.34525 3:8.29300 4:8.77667 5:9.17299
1.700000e-01 1:8.24756 2:9.89995 3:8.65346 4:9.03776 5:9.49299
1.700000e-01 1:8.16272 2:10.27440 3:8.15620 4:9.27792 5:8.90335
1.700000e-01 1:8.18034 2:10.09813 3:7.88825 4:8.60787 5:9.12527
1.700000e-01 1:8.24477 2:9.96995 3:7.92282 4:8.61243 5:9.13100
1.700000e-01 1:8.26013 2:10.20303 3:8.12033 4:8.75920 5:9.10694
1.700000e-01 1:8.22103 2:10.22012 3:8.61097 4:9.02386 5:8.93145
1.700000e-01 1:8.14526 2:10.10485 3:8.42559 4:8.76320 5:9.40806
1.700000e-01 1:8.21739 2:10.26640 3:8.45493 4:9.01324 5:9.13882
1.700000e-01 1:8.13804 2:10.09971 3:8.50072 4:9.07264 5:9.15490
1.700000e-01 1:8.17985 2:10.17277 3:8.27890 4:9.14022 5:9.22778
1.700000e-01 1:8.27140 2:10.12113 3:8.39661 4:8.88850 5:9.18604
1.700000e-01 1:8.23443 2:10.00155 3:8.29954 4:8.81303 5:8.90954
1.700000e-01 1:8.19555 2:10.03697 3:8.08174 4:8.83693 5:9.41419
1.700000e-01 1:8.26969 2:9.99248 3:7.64402 4:8.47268 5:9.21033
1.700000e-01 1:8.33741 2:10.01364 3:7.87438 4:8.31807 5:8.45967
1.700000e-01 1:8.04216 2:10.16448 3:8.18839 4:9.03500 5:9.47938
1.700000e-01 1:8.05803 2:10.06761 3:8.18364 4:8.86184 5:9.39370
1.700000e-01 1:8.14142 2:10.22026 3:8.00170 4:9.05843 5:8.90189
1.700000e-01 1:8.23460 2:10.29594 3:8.41711 4:9.13692 5:8.93647
1.700000e-01 1:8.12673 2:9.87390 3:8.33082 4:9.21800 5:9.35475
1.700000e-01 1:8.10806 2:10.07302 3:7.98431 4:8.55872 5:9.15048
1.700000e-01 1:8.13325 2:10.13565 3:8.28202 4:8.93175 5:9.16931
1.700000e-01 1:8.19106 2:10.03874 3:8.29406 4:8.98304 5:9.34964
1.700000e-01 1:8.17538 2:10.20608 3:8.00219 4:8.77058 5:9.39433
1.700000e-01 1:8.12967 2:9.88849 3:8.14044 4:9.21981 5:9.40739
1.700000e-01 1:8.29129 2:10.76385 3:8.01780 4:8.76858 5:9.72486
1.700000e-01 1:7.94607 2:10.11506 3:8.23387 4:8.61387 5:9.39948
1.700000e-01 1:8.00698 2:10.09641 3:8.19837 4:8.81341 5:9.63366
1.700000e-01 1:8.17644 2:10.19876 3:8.29213 4:8.90377 5:9.44474
1.700000e-01 1:8.23704 2:10.15654 3:8.25695 4:8.50746 5:9.36550
1.700000e-01 1:8.19352 2:10.29664 3:8.12148 4:8.99205 5:9.50196
1.700000e-01 1:8.21800 2:10.05145 3:8.14457 4:9.13656 5:9.27079
1.700000e-01 1:8.18627 2:10.06638 3:8.29156 4:8.98130 5:9.33444
1.700000e-01 1:8.11872 2:10.13099 3:7.91687 4:8.73986 5:9.42383
1.700000e-01 1:8.10858 2:10.07534 3:8.13679 4:8.66114 5:9.33695
1.700000e-01 1:8.12388 2:10.19943 3:8.09926 4:8.38393 5:9.34908
1.700000e-01 1:8.15696 2:10.04297 3:8.31901 4:8.90742 5:9.36340
1.700000e-01 1:8.24667 2:10.15894 3:7.80691 4:8.92058 5:9.05407
1.700000e-01 1:8.23690 2:10.18193 3:8.06853 4:8.73590 5:9.30490
1.700000e-01 1:8.22787 2:10.07576 3:8.27983 4:8.91213 5:9.10425
1.700000e-01 1:8.20548 2:9.37938 3:7.84617 4:8.52012 5:9.41447
1.700000e-01 1:8.27715 2:9.48555 3:7.68158 4:8.31526 5:8.14918
1.700000e-01 1:8.21740 2:10.68882 3:8.28476 4:8.95311 5:9.03420
1.700000e-01 1:8.17199 2:9.83432 3:8.11769 4:8.91056 5:9.24169
1.700000e-01 1:8.21532 2:10.45711 3:7.80482 4:7.73017 5:8.54186
1.700000e-01 1:8.16664 2:9.96195 3:7.80110 4:8.84855 5:9.19732
1.700000e-01 1:8.02978 2:10.44973 3:8.35229 4:8.70128 5:9.02238
1.700000e-01 1:8.07283 2:10.37954 3:8.36111 4:8.92914 5:9.09375
1.700000e-01 1:8.27316 2:10.36901 3:7.93877 4:8.88588 5:9.30872
1.700000e-01 1:8.14119 2:10.13492 3:8.43426 4:9.07639 5:9.16071
1.700000e-01 1:8.26346 2:10.31276 3:8.28801 4:8.69874 5:8.96884
1.700000e-01 1:8.12346 2:9.78874 3:7.78660 4:8.41087 5:8.49560
1.700000e-01 1:8.02859 2:10.57943 3:8.38576 4:8.69862 5:8.27509
1.700000e-01 1:8.27313 2:10.40877 3:7.77593 4:8.45987 5:8.58230
1.700000e-01 1:8.18288 2:9.58485 3:7.95137 4:8.44944 5:8.62602
1.700000e-01 1:8.34351 2:9.66843 3:7.64644 4:8.38146 5:8.26008
1.700000e-01 1:8.27911 2:10.18329 3:7.77553 4:8.06587 5:7.80850
1.700000e-01 1:8.28832 2:10.35166 3:7.49270 4:8.17844 5:8.25525
1.700000e-01 1:8.16674 2:10.02280 3:8.29118 4:8.06332 5:8.54991
1.700000e-01 1:8.21942 2:10.30336 3:8.61694 4:9.03917 5:8.93690
1.700000e-01 1:8.30977 2:10.49259 3:7.72160 4:8.57612 5:9.19022
1.700000e-01 1:8.33743 2:10.26392 3:8.36417 4:8.73530 5:9.11812
1.700000e-01 1:8.27975 2:9.96058 3:7.89059 4:9.04783 5:8.96481
1.700000e-01 1:8.10781 2:10.31413 3:7.87356 4:8.52900 5:8.82157
1.700000e-01 1:7.94952 2:10.33742 3:8.09921 4:8.81013 5:8.96808
1.700000e-01 1:8.22432 2:10.09986 3:7.81819 4:8.69149 5:9.23148
1.700000e-01 1:8.47678 2:9.93666 3:7.40090 4:8.33410 5:8.13194
1.700000e-01 1:8.35423 2:10.26963 3:6.72503 4:7.13141 5:7.20582
1.700000e-01 1:8.20220 2:9.79201 3:8.50278 4:9.04132 5:9.12347
1.700000e-01 1:8.33860 2:10.00833 3:7.58620 4:8.46099 5:8.25351
1.700000e-01 1:8.38473 2:9.85392 3:8.02023 4:8.72625 5:9.34100
1.700000e-01 1:8.40590 2:10.55788 3:7.99265 4:8.85418 5:7.98557
1.700000e-01 1:8.37631 2:10.32964 3:8.05438 4:8.61198 5:8.81479
1.700000e-01 1:8.34982 2:10.33445 3:7.67489 4:8.61198 5:8.59360
1.700000e-01 1:8.28051 2:10.37972 3:7.99654 4:8.54037 5:8.19056
1.700000e-01 1:8.28564 2:10.17916 3:8.25387 4:8.66899 5:8.83985
1.700000e-01 1:8.29441 2:10.14260 3:8.39531 4:8.72455 5:9.11204
1.700000e-01 1:8.22538 2:10.18549 3:7.75630 4:8.35238 5:8.18699
1.700000e-01 1:8.27295 2:10.30216 3:7.91000 4:8.40798 5:8.69566
1.700000e-01 1:8.41870 2:10.20046 3:8.22882 4:8.62712 5:8.57139
1.700000e-01 1:8.29173 2:10.49394 3:8.28732 4:8.57677 5:8.40149
1.700000e-01 1:8.38339 2:9.81371 3:7.71690 4:8.82417 5:8.48868
1.700000e-01 1:8.35305 2:10.05827 3:7.84901 4:8.07489 5:8.39916
1.700000e-01 1:8.35751 2:9.85446 3:7.94894 4:8.85856 5:8.73640
1.700000e-01 1:8.39885 2:10.07340 3:7.37389 4:7.88530 5:8.17485
1.700000e-01 1:8.33661 2:10.44161 3:7.75605 4:8.47254 5:8.45001
1.700000e-01 1:8.21540 2:10.22578 3:7.77811 4:8.39460 5:8.86379
1.700000e-01 1:7.95718 2:9.42976 3:7.63658 4:7.97303 5:8.28018
1.700000e-01 1:8.22072 2:9.91684 3:7.53879 4:7.98762 5:8.23275
1.700000e-01 1:8.31651 2:10.17864 3:7.81979 4:8.26606 5:8.82691
1.700000e-01 1:8.42086 2:10.86260 3:7.80057 4:8.20682 5:7.93294
1.700000e-01 1:8.31857 2:10.27277 3:7.74254 4:8.29061 5:8.62055
1.700000e-01 1:8.32821 2:10.58345 3:7.61921 4:8.34901 5:8.50892
1.700000e-01 1:8.37313 2:9.97906 3:7.57536 4:8.48843 5:8.54412
1.700000e-01 1:8.23758 2:9.79236 3:7.38397 4:7.82326 5:8.15566
1.700000e-01 1:8.33094 2:10.02493 3:7.61354 4:7.90478 5:8.22980
1.700000e-01 1:8.42276 2:10.19432 3:7.39793 4:7.93749 5:8.10153
1.700000e-01 1:8.37055 2:10.12243 3:7.51424 4:8.10874 5:8.28669
1.700000e-01 1:8.30014 2:11.69208 3:9.39367 4:10.52641 5:11.06667
1.700000e-01 1:8.48735 2:11.50086 3:8.11034 4:9.18698 5:9.83994
1.700000e-01 1:8.49666 2:11.55981 3:8.43754 4:9.27054 5:9.88629
1.700000e-01 1:8.43198 2:11.34260 3:7.79418 4:9.29839 5:10.06022
1.700000e-01 1:8.23140 2:11.76537 3:8.80946 4:9.94481 5:9.70839
1.700000e-01 1:8.43530 2:11.26382 3:8.05086 4:9.29386 5:10.17865
1.700000e-01 1:8.27141 2:11.76439 3:8.64812 4:9.95722 5:9.76073
7.782281e-02 1:8.37505 2:11.65165 3:9.12387 4:10.68641 5:10.68541
1.700000e-01 1:8.39068 2:11.68822 3:8.46633 4:9.41053 5:10.65675
1.700000e-01 1:8.38732 2:11.70713 3:8.30939 4:9.36474 5:10.67042
1.700000e-01 1:8.11908 2:10.29968 3:7.35135 4:8.38555 5:9.31629
1.700000e-01 1:7.91240 2:11.66650 3:8.12406 4:8.88592 5:8.78848
1.700000e-01 1:8.27496 2:11.69087 3:8.67564 4:9.58193 5:9.80263
1.700000e-01 1:8.24817 2:11.68458 3:9.14073 4:9.56503 5:9.65205
1.700000e-01 1:8.36188 2:11.77788 3:9.38490 4:10.68856 5:10.88276
4.985504e-02 1:8.39454 2:11.57995 3:8.37589 4:9.96227 5:10.63571
1.700000e-01 1:8.40182 2:11.51998 3:8.47750 4:9.55257 5:10.85387
1.700000e-01 1:8.39405 2:11.49742 3:8.80108 4:10.49041 5:10.88663
1.272294e-01 1:8.32363 2:11.65691 3:9.05903 4:10.45424 5:11.03318
1.700000e-01 1:8.36695 2:11.65792 3:9.63008 4:10.60434 5:10.63251
1.267925e-01 1:8.41781 2:11.86919 3:9.48624 4:10.38986 5:10.63893
1.700000e-01 1:8.29735 2:11.09871 3:8.60331 4:9.09410 5:9.30883
1.700000e-01 1:8.20619 2:10.42935 3:7.79177 4:8.31105 5:7.90730
1.700000e-01 1:8.20466 2:10.21255 3:8.45126 4:9.02612 5:9.27439
1.700000e-01 1:8.24236 2:10.22372 3:8.08513 4:8.84720 5:9.56303
1.700000e-01 1:8.29869 2:9.99333 3:8.40249 4:8.63107 5:8.53705
1.700000e-01 1:8.09883 2:10.86854 3:8.11538 4:8.97125 5:8.22358
1.700000e-01 1:8.18298 2:10.59159 3:8.26456 4:8.77428 5:9.35815
1.700000e-01 1:8.33198 2:10.30663 3:8.35782 4:8.67450 5:9.18980
1.700000e-01 1:8.23441 2:10.34497 3:8.22055 4:8.74130 5:9.15908
1.700000e-01 1:8.19356 2:10.46324 3:8.40073 4:9.02595 5:9.21345
1.700000e-01 1:8.20055 2:10.26307 3:7.86966 4:8.28267 5:8.86861
1.700000e-01 1:8.20692 2:10.32637 3:7.93626 4:8.30264 5:8.46472
1.700000e-01 1:8.24374 2:10.27957 3:7.99716 4:8.51508 5:8.85601
1.700000e-01 1:8.34070 2:10.36499 3:7.90104 4:8.99747 5:9.33756
1.700000e-01 1:8.20166 2:10.32324 3:8.26872 4:8.80121 5:8.19243
1.700000e-01 1:8.14357 2:10.28323 3:8.55440 4:9.07124 5:9.09524
1.700000e-01 1:8.12416 2:10.13424 3:8.67336 4:8.92780 5:9.18125
1.700000e-01 1:8.16296 2:10.43959 3:8.46642 4:8.73238 5:9.31298
1.700000e-01 1:8.26823 2:10.41936 3:8.18674 4:8.82578 5:9.46074
1.700000e-01 1:8.34860 2:10.24850 3:8.05702 4:8.64234 5:9.29766
1.700000e-01 1:8.25611 2:10.00232 3:7.89776 4:8.43996 5:8.34485
1.700000e-01 1:8.15183 2:10.10630 3:7.61304 4:7.78141 5:8.09891
1.700000e-01 1:8.13796 2:10.21265 3:8.38134 4:8.61036 5:8.58082
1.700000e-01 1:8.09327 2:10.31985 3:8.10424 4:9.20343 5:9.15179
1.700000e-01 1:8.18788 2:10.35136 3:7.96878 4:8.78569 5:9.42476
1.700000e-01 1:8.24693 2:10.54988 3:7.98572 4:8.31668 5:9.26859
1.700000e-01 1:8.26551 2:10.54844 3:7.96881 4:8.47147 5:8.82076
1.700000e-01 1:8.24610 2:10.59080 3:7.73039 4:8.80114 5:9.09119
1.700000e-01 1:8.29966 2:10.18694 3:7.63064 4:8.79414 5:9.08501
1.700000e-01 1:8.32602 2:10.20990 3:7.91578 4:8.83057 5:8.83142
1.700000e-01 1:8.22656 2:10.00258 3:7.83820 4:8.66551 5:8.94110
1.700000e-01 1:8.10871 2:10.10667 3:7.67419 4:8.09163 5:8.90894
1.700000e-01 1:8.12261 2:10.37882 3:8.33987 4:9.26020 5:9.08806
1.700000e-01 1:8.09603 2:10.67684 3:9.07195 4:9.58625 5:9.05159
1.700000e-01 1:8.25337 2:10.99349 3:8.80656 4:9.30779 5:9.13956
1.700000e-01 1:8.31302 2:10.80314 3:8.92257 4:9.21213 5:9.13529
1.700000e-01 1:8.31941 2:10.57335 3:8.68751 4:8.94648 5:9.19333
1.700000e-01 1:8.22855 2:10.35855 3:8.67060 4:8.97175 5:9.13923
1.700000e-01 1:8.14183 2:10.82863 3:9.74412 4:9.78055 5:9.59906
1.700000e-01 1:8.22564 2:11.05231 3:9.28871 4:9.93345 5:9.41033
1.700000e-01 1:8.14430 2:10.64130 3:9.17509 4:9.39320 5:9.20727
1.700000e-01 1:8.15258 2:11.02120 3:9.63258 4:9.49966 5:9.39095
1.700000e-01 1:8.14772 2:9.88899 3:8.11598 4:8.40462 5:8.81388
1.700000e-01 1:8.14328 2:9.97626 3:7.68109 4:8.20904 5:8.44353
1.700000e-01 1:8.17686 2:9.69033 3:7.72446 4:8.44915 5:8.99607
1.700000e-01 1:8.05487 2:10.52367 3:7.34671 4:8.23181 5:8.47330
1.700000e-01 1:8.22666 2:10.69026 3:8.09937 4:8.60337 5:9.12842
1.700000e-01 1:8.34105 2:10.84061 3:8.18318 4:8.15289 5:9.06517
1.700000e-01 1:8.31300 2:10.91877 3:8.10971 4:8.64397 5:9.25758
1.700000e-01 1:8.32543 2:10.89322 3:8.24547 4:8.73464 5:9.50775
1.700000e-01 1:8.35066 2:11.00371 3:8.27221 4:9.43554 5:9.13923
1.700000e-01 1:7.95372 2:10.71844 3:9.24253 4:9.45594 5:9.16361
1.700000e-01 1:8.19535 2:10.46291 3:9.04175 4:8.99548 5:9.03381
1.700000e-01 1:8.25137 2:9.99590 3:8.77704 4:9.16854 5:9.09949
1.700000e-01 1:8.21761 2:10.81695 3:8.06813 4:8.86522 5:8.72448
1.700000e-01 1:8.07357 2:9.84560 3:8.75420 4:8.86175 5:9.45169
1.700000e-01 1:7.97459 2:10.79504 3:8.34998 4:8.74709 5:8.55516
1.700000e-01 1:8.10381 2:11.17985 3:9.59226 4:9.55539 5:9.31647
1.700000e-01 1:8.28191 2:9.80380 3:8.04801 4:8.64905 5:8.95386
1.700000e-01 1:8.31041 2:10.31712 3:8.68295 4:8.54397 5:9.04110
1.700000e-01 1:8.16466 2:9.69267 3:8.07075 4:8.19054 5:8.39739
1.700000e-01 1:8.24635 2:11.30517 3:9.81295 4:10.06870 5:9.71707
1.700000e-01 1:8.24239 2:11.29384 3:10.08007 4:10.21033 5:9.78778
1.700000e-01 1:8.17459 2:11.12225 3:9.92103 4:10.30618 5:9.90838
1.700000e-01 1:8.19474 2:11.16664 3:9.35102 4:9.91025 5:9.23597
1.066206e-01 1:8.18911 2:11.00704 3:9.64807 4:10.16245 5:9.73111
1.700000e-01 1:8.28725 2:11.07288 3:9.50887 4:9.34679 5:9.63871
1.700000e-01 1:8.13592 2:11.32577 3:10.08443 4:9.81364 5:10.06275
1.700000e-01 1:8.27246 2:11.25495 3:8.43421 4:9.28808 5:9.11808
1.700000e-01 1:8.19738 2:11.05421 3:8.48695 4:8.75601 5:9.10740
1.700000e-01 1:8.29582 2:10.72393 3:8.37069 4:9.26588 5:9.07475
1.700000e-01 1:8.32703 2:10.53846 3:7.53280 4:8.41367 5:9.21950
1.700000e-01 1:8.23173 2:11.22636 3:8.33392 4:9.22266 5:8.90246
1.700000e-01 1:8.31649 2:11.12825 3:9.37189 4:9.42590 5:9.25606
1.700000e-01 1:8.22620 2:11.22600 3:8.20879 4:8.93823 5:9.47024
1.700000e-01 1:8.30217 2:11.34489 3:9.41093 4:9.56306 5:9.49936
1.700000e-01 1:8.31490 2:10.96781 3:9.49054 4:9.77928 5:9.51271
1.700000e-01 1:8.24681 2:10.94795 3:8.90352 4:9.31728 5:9.19483
1.700000e-01 1:8.20218 2:10.70105 3:9.32699 4:9.18555 5:9.06337
1.700000e-01 1:8.24506 2:10.59042 3:7.99114 4:8.59146 5:9.12791
1.700000e-01 1:8.14357 2:11.11539 3:8.65655 4:8.92152 5:9.30932
1.700000e-01 1:8.37642 2:10.85204 3:8.85406 4:9.01701 5:9.08111
1.700000e-01 1:8.18624 2:10.83382 3:8.23369 4:9.03480 5:8.94636
-1.700000e-01 1:8.37228 2:10.89869 3:8.65103 4:9.16816 5:9.82632
-1.700000e-01 1:8.18556 2:10.99045 3:9.47563 4:9.65919 5:9.85953
-1.700000e-01 1:8.23339 2:10.35042 3:8.99635 4:9.13222 5:8.65354
-1.700000e-01 1:8.27140 2:11.15501 3:9.27196 4:9.17922 5:9.31744
-1.700000e-01 1:8.04981 2:10.70511 3:8.54324 4:9.37201 5:9.21989
-1.700000e-01 1:8.41028 2:10.46894 3:8.87559 4:8.92205 5:8.53948
-1.700000e-01 1:8.18096 2:10.71460 3:9.14624 4:9.70973 5:9.38934
-1.700000e-01 1:8.24440 2:10.25379 3:8.80739 4:8.44817 5:8.92485
-1.700000e-01 1:8.39153 2:10.62562 3:9.77025 4:9.62081 5:8.80639
-1.700000e-01 1:8.21264 2:10.86318 3:9.98623 4:9.57463 5:8.95451
-1.225511e-01 1:8.27419 2:10.55781 3:10.20130 4:10.11577 5:8.90202
-1.700000e-01 1:8.34137 2:10.45746 3:9.08376 4:9.18079 5:8.54906
-1.700000e-01 1:8.18836 2:10.30030 3:8.87031 4:9.58356 5:9.46326
-1.700000e-01 1:8.40657 2:11.26314 3:8.85717 4:9.09375 5:9.22130
-1.700000e-01 1:8.47632 2:10.29358 3:8.48588 4:8.78826 5:8.41291
-1.700000e-01 1:8.00660 2:10.63495 3:8.68688 4:8.97936 5:9.17875
-1.700000e-01 1:8.15169 2:10.31825 3:8.97169 4:8.74223 5:9.10451
-3.088944e-02 1:7.67458 2:11.11132 3:6.52979 4:7.19011 5:7.50784
-1.700000e-01 1:7.95091 2:10.47292 3:9.14578 4:8.43957 5:9.01225
-1.700000e-01 1:8.23293 2:9.87296 3:9.70379 4:9.54247 5:8.86617
-1.295694e-02 1:7.85598 2:11.30119 3:8.11878 4:8.35332 5:8.86917
-1.700000e-01 1:8.25830 2:11.15731 3:9.07277 4:9.47547 5:9.79145
-1.700000e-01 1:8.16278 2:10.29483 3:9.29515 4:9.60869 5:9.39672
-1.700000e-01 1:8.10427 2:10.15373 3:8.03407 4:8.66368 5:9.14488
-1.700000e-01 1:7.95835 2:10.94446 3:8.42202 4:9.01004 5:9.09571
-1.700000e-01 1:8.23946 2:9.84600 3:7.64603 4:8.41255 5:9.02701
-1.544276e-02 1:7.97622 2:8.52099 3:6.91806 4:7.06081 5:8.00524
-1.700000e-01 1:7.80289 2:10.61655 3:8.99530 4:9.02355 5:9.38145
-1.700000e-01 1:8.06607 2:9.77303 3:8.63427 4:8.76439 5:9.26325
-1.700000e-01 1:8.10169 2:9.49739 3:7.84326 4:8.82629 5:9.17964
-1.700000e-01 1:8.21991 2:10.57090 3:8.52351 4:9.08063 5:9.47223
-1.700000e-01 1:8.15487 2:9.97571 3:8.53460 4:9.08355 5:9.30054
-1.700000e-01 1:8.08038 2:10.24918 3:8.11447 4:8.91897 5:9.10877
-1.700000e-01 1:8.14966 2:10.11418 3:8.56802 4:9.01477 5:8.88009
-1.700000e-01 1:8.27019 2:10.16842 3:8.36725 4:8.64976 5:9.31328
-1.700000e-01 1:8.21111 2:9.76480 3:8.20539 4:8.75287 5:8.84889
-1.700000e-01 1:8.21200 2:9.86169 3:8.15632 4:8.72302 5:8.87287
-1.700000e-01 1:8.18471 2:9.88705 3:8.03498 4:9.00018 5:9.57234
-1.700000e-01 1:8.08933 2:9.67211 3:8.48831 4:9.25056 5:9.35725
-8.890590e-03 1:8.17425 2:10.48251 3:7.10540 4:7.63918 5:7.77695
-1.700000e-01 1:8.35966 2:9.95563 3:7.27281 4:8.01644 5:7.51112
-1.700000e-01 1:7.68023 2:10.92796 3:8.30791 4:8.96596 5:9.28326
-1.700000e-01 1:8.23219 2:10.32320 3:8.89084 4:8.89679 5:9.54070
-1.700000e-01 1:8.12622 2:10.90692 3:8.92577 4:9.15166 5:8.85708
-1.700000e-01 1:8.22960 2:9.98609 3:7.63810 4:8.60977 5:8.95490
-1.700000e-01 1:8.19906 2:9.71837 3:8.03705 4:9.04763 5:9.13003
-1.700000e-01 1:8.28602 2:10.01987 3:9.26862 4:9.02662 5:8.78476
-1.700000e-01 1:8.17716 2:10.82758 3:10.55808 4:10.26258 5:9.13664
-1.700000e-01 1:8.19876 2:10.33593 3:9.92369 4:9.81738 5:8.83962
-1.700000e-01 1:8.24488 2:9.96359 3:7.25972 4:7.97971 5:7.50081
-1.700000e-01 1:8.09827 2:10.80599 3:9.26205 4:9.06242 5:8.91783
-1.700000e-01 1:8.25182 2:10.13204 3:8.44122 4:8.46681 5:9.69196
-1.700000e-01 1:8.03561 2:10.22058 3:7.92368 4:8.30045 5:8.83583
-1.700000e-01 1:7.68419 2:11.39790 3:8.08833 4:8.98497 5:9.35349
-1.700000e-01 1:8.39706 2:11.23400 3:8.73690 4:10.00713 5:10.60534
-1.700000e-01 1:8.03587 2:9.63875 3:7.57126 4:8.73405 5:9.95870
-1.700000e-01 1:8.31924 2:11.14484 3:8.14349 4:8.92827 5:9.32885
-1.155701e-01 1:7.68403 2:11.62815 3:7.92879 4:9.14476 5:9.07187
-1.700000e-01 1:8.39513 2:11.34909 3:8.73066 4:9.87788 5:9.97255
-1.700000e-01 1:8.22133 2:10.28424 3:7.54197 4:8.50968 5:9.66741
-1.700000e-01 1:8.09153 2:9.78897 3:8.15577 4:8.66222 5:8.94788
-1.700000e-01 1:7.93112 2:11.08566 3:7.83525 4:8.59563 5:9.03282
-1.700000e-01 1:8.32546 2:10.58916 3:8.13999 4:9.20673 5:9.85262
-1.700000e-01 1:8.14144 2:9.98683 3:7.79518 4:8.30670 5:8.95183
-1.700000e-01 1:8.05626 2:11.00271 3:8.08489 4:8.88026 5:9.27512
-1.700000e-01 1:8.25109 2:10.40965 3:8.04067 4:8.92323 5:8.82186
-1.700000e-01 1:7.71069 2:11.66444 3:8.78495 4:8.91001 5:9.42378
-1.700000e-01 1:8.28214 2:10.68266 3:8.36674 4:9.30949 5:9.94739
-1.700000e-01 1:8.15626 2:11.69018 3:9.37333 4:9.98382 5:9.94836
-1.700000e-01 1:8.37296 2:11.23731 3:8.83706 4:10.01875 5:10.30515
-1.700000e-01 1:8.21554 2:10.12522 3:7.66906 4:8.37790 5:9.80511
-1.700000e-01 1:8.19510 2:11.72456 3:9.58667 4:10.43090 5:10.40566
-1.700000e-01 1:8.38161 2:10.98941 3:8.73186 4:10.16653 5:10.65391
-1.700000e-01 1:8.15591 2:10.25839 3:8.20911 4:9.37403 5:9.21845
-1.700000e-01 1:8.30962 2:10.20001 3:7.73816 4:8.35662 5:8.75286
-1.700000e-01 1:8.46649 2:10.57763 3:8.55259 4:9.35478 5:8.63270
-9.023054e-02 1:8.15203 2:14.34514 3:12.73985 4:12.73522 5:12.41681
-7.377607e-02 1:8.30976 2:14.68067 3:13.61397 4:12.92225 5:12.73206
-4.553999e-02 1:8.34862 2:14.32370 3:13.24666 4:13.26755 5:12.93605
-1.700000e-01 1:8.06045 2:12.57079 3:10.45596 4:10.61062 5:10.14767
-7.896814e-03 1:8.24930 2:8.81022 3:7.87552 4:7.34422 5:7.57201
-1.700000e-01 1:8.18471 2:10.21652 3:8.57746 4:8.81538 5:8.57301
-1.700000e-01 1:8.17443 2:9.85140 3:8.65664 4:8.62347 5:8.65280
-1.700000e-01 1:8.12163 2:9.70343 3:8.49840 4:8.80260 5:9.19162
-1.700000e-01 1:8.09739 2:11.16150 3:8.96944 4:9.41430 5:9.48596
-1.700000e-01 1:8.09554 2:10.16581 3:8.43077 4:8.60781 5:8.51117
-1.700000e-01 1:7.95095 2:10.68876 3:9.52957 4:9.56380 5:9.06462
-1.700000e-01 1:8.06699 2:9.55956 3:8.14988 4:9.04514 5:9.46361
-1.700000e-01 1:7.97000 2:10.01402 3:8.62306 4:9.58812 5:9.96633
-1.700000e-01 1:8.17988 2:9.59035 3:7.82481 4:8.87123 5:9.26213
-1.700000e-01 1:8.12653 2:9.77767 3:7.91196 4:8.56020 5:8.89779
-1.700000e-01 1:8.15520 2:9.55801 3:8.11684 4:8.65689 5:9.13787
-1.700000e-01 1:8.23507 2:10.49339 3:7.15864 4:7.64733 5:7.83096
-1.700000e-01 1:8.37426 2:9.94447 3:7.71327 4:8.63073 5:8.83803
-1.549742e-01 1:8.50619 2:9.74501 3:7.39468 4:7.99055 5:7.50880
-2.734314e-02 1:8.10059 2:8.69398 3:7.93983 4:7.77399 5:6.96934
-1.700000e-01 1:8.38209 2:9.98519 3:7.99254 4:8.77263 5:8.72853
-1.006979e-01 1:8.39200 2:9.89031 3:7.43345 4:7.49255 5:7.71243
-1.046861e-01 1:8.34667 2:8.15374 3:6.32702 4:6.71161 5:6.44513
-9.278260e-03 1:8.32849 2:8.00077 3:6.50458 4:6.48364 5:6.79521
-1.700000e-01 1:7.49527 2:10.81882 3:9.93988 4:10.78583 5:9.86481
-1.700000e-01 1:8.02707 2:11.22614 3:9.04417 4:9.16916 5:8.86570
-1.700000e-01 1:8.31000 2:10.20237 3:7.93582 4:8.28575 5:8.60742
-4.710638e-02 1:7.93696 2:10.49839 3:8.03533 4:8.63813 5:8.42917
-1.700000e-01 1:7.92065 2:10.14778 3:8.36321 4:9.06863 5:9.64213
-5.554054e-02 1:8.36669 2:9.57369 3:7.23118 4:8.04987 5:7.62879
-1.700000e-01 1:8.45734 2:10.19963 3:7.27922 4:7.99893 5:7.65135
-1.700000e-01 1:8.28714 2:10.37459 3:7.27160 4:7.30886 5:7.66602
-1.700000e-01 1:8.09819 2:10.59315 3:8.31792 4:9.07016 5:8.85994
-1.700000e-01 1:8.19482 2:9.82503 3:8.74161 4:9.56018 5:9.25091
-1.700000e-01 1:8.45032 2:10.40698 3:7.60205 4:8.31242 5:8.58506
-3.762813e-03 1:8.44873 2:10.27461 3:7.35115 4:8.13255 5:7.61744
-1.700000e-01 1:8.23361 2:10.53361 3:8.57234 4:9.25195 5:9.37483
-1.700000e-01 1:8.11019 2:9.46828 3:8.12139 4:8.58859 5:9.06940
-1.700000e-01 1:8.43648 2:10.31456 3:7.93823 4:8.58925 5:8.36957
-1.700000e-01 1:8.14945 2:10.57668 3:7.91821 4:9.11509 5:9.32716
-1.700000e-01 1:8.40338 2:10.09198 3:7.59340 4:8.31719 5:9.00578
-9.214130e-04 1:8.34427 2:9.53549 3:7.40884 4:8.12946 5:7.50447
-9.585367e-03 1:7.97703 2:10.50503 3:7.47903 4:8.14432 5:7.28171
-1.700000e-01 1:8.27673 2:10.29507 3:7.24445 4:7.45101 5:7.92610
-1.700000e-01 1:8.41007 2:10.42392 3:7.84662 4:8.79404 5:8.83406
-1.700000e-01 1:8.50870 2:10.18571 3:7.39000 4:7.63454 5:7.60918
-1.700000e-01 1:8.21517 2:10.43865 3:8.04650 4:8.78213 5:9.20646
-1.700000e-01 1:8.28155 2:12.16340 3:8.90098 4:9.06274 5:9.17816
-1.700000e-01 1:8.13720 2:10.42518 3:7.87847 4:8.71566 5:8.37401
-7.064157e-02 1:8.18102 2:9.53050 3:6.91323 4:7.20914 5:8.26008
-1.700000e-01 1:7.97524 2:11.71034 3:8.83427 4:9.45736 5:9.28612
-1.700000e-01 1:8.18760 2:10.34710 3:8.06520 4:9.33306 5:9.24287
-1.700000e-01 1:8.10285 2:11.50253 3:8.05359 4:8.97115 5:9.49815
-1.700000e-01 1:8.16929 2:9.85050 3:7.46525 4:8.43997 5:9.51524
-1.700000e-01 1:7.68419 2:11.39790 3:8.08833 4:8.98497 5:9.35349
-1.700000e-01 1:8.03587 2:9.63875 3:7.57126 4:8.73405 5:9.95870
-1.700000e-01 1:8.31924 2:11.14484 3:8.14349 4:8.92827 5:9.32885
-1.476325e-01 1:7.68403 2:11.62815 3:7.92879 4:9.14476 5:9.07187
-1.700000e-01 1:8.09153 2:9.78897 3:8.15577 4:8.66222 5:8.94788
-1.700000e-01 1:7.93112 2:11.08566 3:7.83525 4:8.59563 5:9.03282
-1.700000e-01 1:8.32546 2:10.58916 3:8.13999 4:9.20673 5:9.85262
-1.700000e-01 1:8.14144 2:9.98683 3:7.79518 4:8.30670 5:8.95183
-1.700000e-01 1:8.05626 2:11.00271 3:8.08489 4:8.88026 5:9.27512
-1.700000e-01 1:8.25109 2:10.40965 3:8.04067 4:8.92323 5:8.82186
-1.700000e-01 1:7.71069 2:11.66444 3:8.78495 4:8.91001 5:9.42378
-1.700000e-01 1:8.28214 2:10.68266 3:8.36674 4:9.30949 5:9.94739
-1.700000e-01 1:8.15626 2:11.69018 3:9.37333 4:9.98382 5:9.94836
-1.700000e-01 1:8.37296 2:11.23731 3:8.83706 4:10.01875 5:10.30515
-1.700000e-01 1:8.21554 2:10.12522 3:7.66906 4:8.37790 5:9.80511
-1.700000e-01 1:8.19510 2:11.72456 3:9.58667 4:10.43090 5:10.40566
-1.700000e-01 1:8.38161 2:10.98941 3:8.73186 4:10.16653 5:10.65391
-1.700000e-01 1:8.30962 2:10.20001 3:7.73816 4:8.35662 5:8.75286
-7.969561e-02 1:7.09173 2:11.81458 3:7.11013 4:7.21782 5:7.10089
-1.700000e-01 1:8.16728 2:10.78571 3:8.66962 4:9.02167 5:8.41414
-1.700000e-01 1:8.37344 2:10.28471 3:7.86880 4:8.59351 5:8.38101
-1.700000e-01 1:7.87945 2:10.96900 3:8.71601 4:9.49377 5:9.06188
-1.700000e-01 1:8.01093 2:9.52590 3:8.19016 4:8.30693 5:9.30165
-1.700000e-01 1:8.09500 2:10.13906 3:8.04819 4:8.45870 5:9.31517
-1.700000e-01 1:8.41488 2:10.13499 3:8.99062 4:9.10926 5:8.60024
-1.700000e-01 1:8.34745 2:10.50846 3:8.43980 4:8.48106 5:8.51962
-1.700000e-01 1:8.50289 2:10.82233 3:9.43751 4:9.70578 5:8.93660
-1.700000e-01 1:7.99216 2:11.03137 3:8.78238 4:9.37978 5:9.38740
-1.700000e-01 1:8.39685 2:10.97684 3:8.68870 4:9.67705 5:9.69812
-1.700000e-01 1:7.81357 2:9.30299 3:9.12879 4:9.19320 5:8.69873
-1.366287e-01 1:7.22150 2:12.22501 3:8.83708 4:9.54148 5:9.29941
-1.700000e-01 1:8.24665 2:11.10648 3:9.16084 4:9.59714 5:9.25321
-1.700000e-01 1:8.06026 2:10.60428 3:9.07670 4:9.35415 5:9.66485
-1.700000e-01 1:8.44588 2:10.59839 3:8.18323 4:8.86315 5:8.63464
-1.700000e-01 1:8.46497 2:11.25872 3:9.10026 4:8.94344 5:9.09024
-1.700000e-01 1:8.16269 2:10.37837 3:8.75503 4:9.40794 5:9.03232
-1.700000e-01 1:8.31892 2:10.78808 3:8.73983 4:9.89470 5:10.05621
-2.899487e-02 1:7.86546 2:10.02898 3:7.15216 4:7.25102 5:7.81981
-1.700000e-01 1:7.72948 2:11.13656 3:8.33217 4:8.99669 5:9.03832
-1.700000e-01 1:7.88128 2:11.45470 3:8.89055 4:9.38454 5:9.37394
-1.700000e-01 1:8.40698 2:10.33422 3:8.30886 4:9.14410 5:8.69457
-1.700000e-01 1:7.88339 2:10.16675 3:8.64898 4:8.80800 5:9.28949
-6.496048e-02 1:8.20236 2:9.50441 3:6.99773 4:7.15223 5:7.99216
-1.881468e-02 1:7.65657 2:9.63416 3:7.26892 4:7.57212 5:7.79298
-1.700000e-01 1:7.98570 2:11.15406 3:8.84567 4:9.25854 5:9.61025
-3.038199e-03 1:8.49924 2:10.29500 3:9.65094 4:9.36121 5:8.75881
-1.700000e-01 1:8.00199 2:10.96380 3:8.43077 4:9.43202 5:9.74338
-3.635829e-02 1:7.01634 2:10.59484 3:7.34960 4:7.07510 5:7.56365
-5.106068e-02 1:7.62102 2:9.10199 3:7.55327 4:7.43721 5:7.66261
-4.097108e-02 1:7.98743 2:8.82894 3:7.44055 4:8.11356 5:7.37694
-4.332746e-02 1:6.61772 2:11.79466 3:7.05950 4:7.56834 5:7.67075
-1.700000e-01 1:8.26802 2:10.11469 3:8.17380 4:8.89745 5:8.84153
-1.700000e-01 1:8.33351 2:10.51424 3:8.63172 4:8.93973 5:8.52226
-1.700000e-01 1:8.30414 2:10.20722 3:8.00703 4:8.56267 5:8.62597
-1.700000e-01 1:6.63371 2:10.76948 3:10.61807 4:11.10760 5:11.19543
-1.700000e-01 1:8.30837 2:10.41248 3:8.33359 4:8.54268 5:9.38879
-4.810771e-02 1:7.66806 2:9.70815 3:7.01457 4:7.71840 5:7.76879
-1.700000e-01 1:8.34866 2:10.21432 3:8.83416 4:9.16605 5:9.56027
-1.700000e-01 1:8.34706 2:10.29537 3:9.11804 4:9.46029 5:8.65667
-1.700000e-01 1:7.93265 2:10.92841 3:9.29069 4:8.88527 5:8.82985
-1.793047e-02 1:8.10014 2:8.28900 3:6.30594 4:7.11395 5:7.73677
-1.700000e-01 1:8.17959 2:10.19728 3:8.42607 4:9.38407 5:9.58194
-1.019664e-02 1:8.10785 2:8.40216 3:6.60339 4:7.37546 5:7.93454
-1.700000e-01 1:7.86064 2:9.54931 3:8.33316 4:9.14446 5:9.31438
-1.700000e-01 1:7.94847 2:11.02931 3:8.22215 4:9.38012 5:8.55938
-1.700000e-01 1:8.20868 2:10.66287 3:9.48689 4:9.20894 5:8.75057
-1.700000e-01 1:8.44480 2:10.66829 3:8.97396 4:8.84453 5:8.61683
-1.373268e-01 1:8.48901 2:10.28790 3:9.32394 4:9.17578 5:8.61246
-1.700000e-01 1:8.48763 2:10.69889 3:9.01438 4:9.07916 5:8.61566
-2.920920e-02 1:8.09816 2:8.73153 3:7.92362 4:8.08849 5:7.10224
-1.700000e-01 1:8.33734 2:10.34958 3:8.51247 4:8.67732 5:9.39944
-1.700000e-01 1:8.38068 2:10.14809 3:9.44698 4:9.22740 5:8.71409
-3.068028e-02 1:7.41071 2:10.22761 3:7.73138 4:7.48460 5:7.21270
-1.700000e-01 1:8.05846 2:11.01176 3:8.25082 4:8.58329 5:9.02675
-1.700000e-01 1:7.92653 2:10.57847 3:8.40395 4:9.02248 5:8.50822
-1.700000e-01 1:8.27596 2:9.97220 3:7.99249 4:8.66146 5:8.90263
-1.700000e-01 1:7.98700 2:10.33272 3:8.37102 4:8.40458 5:8.88161
-1.700000e-01 1:7.91723 2:11.06454 3:9.84876 4:9.58461 5:9.16310
-1.700000e-01 1:8.17439 2:10.35109 3:8.92946 4:8.90867 5:9.09210
-1.700000e-01 1:8.20709 2:10.91521 3:8.75722 4:8.69154 5:8.79786
-1.700000e-01 1:8.33098 2:10.76087 3:9.23042 4:9.21711 5:9.88670
-1.700000e-01 1:8.31038 2:10.77801 3:8.92841 4:8.94176 5:8.67409
-1.700000e-01 1:8.32438 2:10.57464 3:9.37986 4:9.08980 5:8.81789
-1.700000e-01 1:8.20642 2:9.97055 3:8.76895 4:8.90045 5:8.54725
-7.391888e-02 1:8.27640 2:9.91153 3:8.34421 4:8.84750 5:8.39289
-1.700000e-01 1:8.19766 2:9.66576 3:8.15247 4:8.44032 5:9.12218
-1.700000e-01 1:8.19393 2:10.55578 3:8.32979 4:8.77505 5:8.94449
-1.700000e-01 1:8.33281 2:10.37709 3:10.08958 4:9.71387 5:8.94833
-1.700000e-01 1:8.34926 2:10.46168 3:9.06774 4:8.37871 5:8.91276
-1.700000e-01 1:8.32530 2:10.15051 3:8.66428 4:8.50722 5:8.77550
-1.700000e-01 1:8.38158 2:10.46149 3:9.27065 4:9.03024 5:9.11115
-1.633629e-01 1:8.15692 2:11.93268 3:9.52088 4:9.49548 5:8.85108
-1.700000e-01 1:8.39001 2:11.56356 3:9.79994 4:9.57468 5:9.05695
-1.700000e-01 1:8.31660 2:10.23069 3:8.42495 4:8.58328 5:8.70605
-1.700000e-01 1:8.17363 2:9.63419 3:8.31359 4:8.79839 5:8.72609
-1.700000e-01 1:8.10623 2:10.15424 3:8.57312 4:8.73460 5:8.68723
-1.700000e-01 1:8.18568 2:10.12599 3:7.93639 4:8.58014 5:8.93198
-1.700000e-01 1:8.27747 2:10.08214 3:8.49696 4:8.40976 5:8.65725
-1.700000e-01 1:8.27738 2:10.67482 3:8.46024 4:8.50594 5:8.53400
-1.700000e-01 1:8.15731 2:11.09510 3:8.27460 4:8.77012 5:8.91182
-1.700000e-01 1:8.36804 2:11.19042 3:9.65310 4:9.45158 5:8.72639
-1.700000e-01 1:8.26496 2:10.42341 3:9.64819 4:9.83855 5:9.76806
-1.700000e-01 1:8.40791 2:10.53948 3:9.47355 4:9.46352 5:8.70584
-1.700000e-01 1:8.33046 2:10.95332 3:10.35045 4:10.06455 5:9.13243
-1.700000e-01 1:8.18199 2:11.65415 3:10.39916 4:9.87353 5:9.35277
-1.700000e-01 1:8.25257 2:9.93680 3:8.06613 4:8.56456 5:8.73695
-1.700000e-01 1:8.27936 2:10.12028 3:7.90351 4:8.09280 5:8.79385
-1.700000e-01 1:8.02810 2:11.70415 3:8.11120 4:9.33591 5:9.22335
-1.700000e-01 1:8.26365 2:10.35318 3:8.25640 4:9.05025 5:9.03776
-1.700000e-01 1:8.24598 2:9.98308 3:7.89352 4:8.85184 5:8.99492
-1.700000e-01 1:8.11620 2:10.37102 3:7.94999 4:8.86152 5:9.19538
-1.700000e-01 1:8.19655 2:10.28027 3:8.22153 4:9.47656 5:9.34915
-1.700000e-01 1:8.25130 2:9.87752 3:7.94153 4:8.35941 5:8.85245
-1.700000e-01 1:8.18298 2:11.11754 3:8.22708 4:8.83190 5:9.73089
-1.700000e-01 1:8.19582 2:10.65618 3:8.32687 4:9.17424 5:9.45113
-1.700000e-01 1:8.01010 2:9.98782 3:8.35435 4:8.85142 5:9.25961
-1.700000e-01 1:8.31587 2:9.88565 3:7.99091 4:8.63459 5:8.92454
-1.700000e-01 1:8.27796 2:9.98966 3:7.61050 4:8.77174 5:8.72274
-1.700000e-01 1:7.98474 2:11.38053 3:8.01205 4:8.73053 5:8.86675
-1.700000e-01 1:8.13817 2:10.26463 3:7.74313 4:8.74781 5:8.84527
-1.700000e-01 1:8.42402 2:10.15909 3:8.38614 4:8.51831 5:8.61614
-1.700000e-01 1:8.21351 2:9.62004 3:8.00208 4:8.74962 5:8.91694
-1.700000e-01 1:8.37042 2:10.32759 3:7.80027 4:8.37747 5:8.72507
-1.700000e-01 1:8.29260 2:10.21614 3:8.06550 4:8.77990 5:8.63370
-1.700000e-01 1:8.19980 2:10.42576 3:7.86596 4:8.63337 5:8.40457
-1.700000e-01 1:8.22334 2:9.88589 3:7.80256 4:8.67397 5:8.77543
-1.700000e-01 1:8.06956 2:10.75638 3:7.89072 4:8.71696 5:8.89650
-1.700000e-01 1:8.29919 2:10.22469 3:7.63177 4:8.46872 5:9.02625
-1.700000e-01 1:8.20057 2:10.85801 3:8.71000 4:9.27476 5:9.41491
-2.758694e-02 1:8.21865 2:9.65972 3:7.73543 4:8.51691 5:9.06076
-1.700000e-01 1:8.34889 2:10.77847 3:7.98631 4:8.82341 5:9.07181
-1.700000e-01 1:8.26649 2:9.86682 3:7.94399 4:8.78702 5:9.20414
-1.700000e-01 1:8.07267 2:10.34630 3:8.24104 4:9.00348 5:9.10971
-1.700000e-01 1:8.13276 2:10.72022 3:8.14764 4:8.99034 5:9.25446
-1.700000e-01 1:8.20432 2:10.21876 3:8.14214 4:8.96000 5:9.25345
-1.700000e-01 1:8.21112 2:9.99306 3:7.72927 4:8.29680 5:9.13486
-1.700000e-01 1:8.23004 2:10.36307 3:7.81949 4:8.77892 5:8.71187
-1.700000e-01 1:8.22680 2:10.00858 3:7.83064 4:8.92635 5:9.51568
-1.700000e-01 1:8.19816 2:10.51570 3:7.83360 4:8.77494 5:9.73022
-1.700000e-01 1:8.21796 2:10.69361 3:8.08055 4:9.00252 5:9.50359
-1.700000e-01 1:8.33623 2:10.98115 3:8.33775 4:9.50659 5:9.72392
-1.700000e-01 1:8.32242 2:10.46879 3:7.79860 4:8.45022 5:8.72837
-1.700000e-01 1:8.21975 2:10.60153 3:7.95354 4:8.88569 5:9.47931
-1.700000e-01 1:8.33829 2:10.22813 3:7.66845 4:8.33823 5:9.04749
-1.700000e-01 1:8.17198 2:10.42709 3:7.66843 4:8.22863 5:8.96382
-1.700000e-01 1:8.18385 2:10.18285 3:8.22124 4:8.93940 5:9.26172
-1.700000e-01 1:8.21784 2:10.12695 3:7.60449 4:8.62837 5:9.16124
-1.700000e-01 1:8.35335 2:10.32119 3:7.59285 4:8.45317 5:8.64207
-1.700000e-01 1:8.26711 2:10.11134 3:7.87417 4:8.75304 5:9.34797
-1.700000e-01 1:8.28352 2:10.04224 3:7.80811 4:8.71713 5:9.46492
-1.700000e-01 1:8.14484 2:10.25353 3:7.78885 4:8.30022 5:8.99967
-1.700000e-01 1:8.01944 2:10.50458 3:7.91799 4:8.58096 5:8.76486
-1.700000e-01 1:8.13007 2:10.38118 3:7.89724 4:9.03777 5:8.70748
-1.700000e-01 1:8.37889 2:10.76098 3:8.31826 4:9.01203 5:9.10063
-1.700000e-01 1:8.21761 2:10.53649 3:7.91944 4:8.76896 5:9.44664
-1.700000e-01 1:8.32819 2:10.22650 3:7.75340 4:8.87441 5:9.07493
-1.700000e-01 1:8.29130 2:10.05473 3:7.86755 4:8.53058 5:9.38681
-1.700000e-01 1:8.28245 2:10.38380 3:7.83484 4:8.69845 5:8.41456
-1.700000e-01 1:8.35804 2:10.68048 3:7.98393 4:8.85369 5:8.61926
-1.700000e-01 1:8.24522 2:10.24462 3:7.95661 4:8.74046 5:9.00040
-1.700000e-01 1:8.32623 2:10.74742 3:8.25356 4:8.76153 5:8.83276
-1.700000e-01 1:8.25540 2:10.10566 3:7.79517 4:8.62786 5:8.96684
-1.700000e-01 1:8.15248 2:10.61820 3:7.88489 4:8.53588 5:8.77406
-1.700000e-01 1:8.15988 2:10.45675 3:8.08119 4:8.96849 5:9.44646
-1.700000e-01 1:8.21511 2:10.37851 3:7.98577 4:8.55580 5:9.44106
-1.700000e-01 1:8.17991 2:10.73607 3:8.37209 4:9.34140 5:9.48954
-1.700000e-01 1:8.26523 2:11.10207 3:7.47002 4:8.04873 5:9.21269
-1.700000e-01 1:8.06247 2:10.76193 3:7.54903 4:8.13678 5:8.73276
-1.700000e-01 1:8.12178 2:10.87713 3:7.97242 4:9.00370 5:9.11317
-1.700000e-01 1:8.21732 2:10.33022 3:7.52491 4:8.59926 5:9.10435
-1.700000e-01 1:8.21425 2:9.83528 3:7.92015 4:8.75648 5:9.17191
-1.700000e-01 1:8.30601 2:10.03671 3:7.73117 4:8.49778 5:8.67072
-1.700000e-01 1:8.13009 2:10.75810 3:7.52500 4:8.44127 5:8.72677
-1.700000e-01 1:8.41004 2:10.12398 3:7.83257 4:8.34119 5:8.76759
-1.700000e-01 1:8.34878 2:10.22422 3:7.58538 4:8.57778 5:8.69262
-2.146505e-02 1:8.37732 2:10.59183 3:7.51277 4:7.65847 5:8.33930
-1.700000e-01 1:8.43859 2:10.50093 3:7.92990 4:8.90054 5:9.37910
-1.700000e-01 1:8.27655 2:10.54218 3:7.37904 4:8.26051 5:8.77017
-1.700000e-01 1:8.37499 2:10.56966 3:7.96425 4:9.08660 5:9.19175
-1.700000e-01 1:8.31981 2:10.03991 3:7.62214 4:8.33935 5:8.83832
-1.700000e-01 1:8.23988 2:10.26605 3:7.72454 4:8.30208 5:8.67064
-1.700000e-01 1:8.20390 2:9.90839 3:7.81955 4:8.63067 5:8.92119
-1.700000e-01 1:8.04183 2:10.98245 3:9.21557 4:9.57350 5:9.21864
-1.700000e-01 1:8.34763 2:11.22709 3:8.07389 4:8.97311 5:9.63794
-1.460039e-01 1:7.59763 2:6.56239 3:7.15754 4:7.53621 5:7.63302
-1.700000e-01 1:8.22433 2:10.06111 3:7.96871 4:8.46986 5:8.82181
-1.700000e-01 1:7.86032 2:9.66011 3:8.84764 4:9.05239 5:8.64810
-1.700000e-01 1:8.19983 2:10.33131 3:8.02743 4:8.11695 5:8.90580
-1.700000e-01 1:8.33213 2:10.26220 3:8.81520 4:8.95928 5:8.82625
-1.700000e-01 1:8.25588 2:9.98880 3:8.67093 4:8.66877 5:8.65050
-1.700000e-01 1:8.43437 2:11.67852 3:10.20303 4:10.32075 5:9.34506
-1.700000e-01 1:8.33449 2:10.26987 3:8.23410 4:8.20901 5:8.84987
-1.700000e-01 1:8.26693 2:9.97203 3:8.33000 4:8.24464 5:8.83534
-1.700000e-01 1:8.31006 2:10.35368 3:8.51135 4:8.66910 5:8.53727
-1.700000e-01 1:8.20841 2:10.19180 3:9.89101 4:9.74184 5:9.28708
-1.700000e-01 1:8.18130 2:9.90545 3:7.98231 4:8.46521 5:8.69601
-1.700000e-01 1:8.42749 2:10.33128 3:7.87317 4:8.62436 5:8.68120
-1.700000e-01 1:8.32818 2:9.89081 3:7.91920 4:8.54568 5:9.00391
-1.700000e-01 1:8.18716 2:10.42750 3:7.74653 4:8.50205 5:8.64290
-1.700000e-01 1:8.21146 2:9.79425 3:7.84771 4:8.67821 5:8.87051
-1.700000e-01 1:8.11109 2:10.85207 3:8.41674 4:8.89912 5:8.73408
-1.700000e-01 1:8.21097 2:10.39458 3:8.71366 4:8.59707 5:8.77639
-1.700000e-01 1:8.48791 2:10.82215 3:8.53004 4:8.89552 5:8.38601
-1.700000e-01 1:8.12594 2:10.20824 3:7.80944 4:8.46991 5:8.68437
-1.700000e-01 1:8.12867 2:10.21775 3:7.74793 4:8.12586 5:8.81945
-1.700000e-01 1:8.14554 2:9.86385 3:8.57390 4:8.75882 5:8.73406
-1.700000e-01 1:8.17424 2:10.42571 3:8.44371 4:8.32411 5:8.72860
-1.122520e-01 1:8.17371 2:12.40656 3:9.83304 4:9.68075 5:9.04306
-1.700000e-01 1:8.20879 2:10.39188 3:7.60727 4:8.20951 5:8.89518
-1.700000e-01 1:8.29387 2:10.22318 3:7.63499 4:8.12613 5:8.89754
-1.700000e-01 1:8.17929 2:10.28234 3:7.97135 4:8.70055 5:8.58443
